/*******************************************************************************
 Source: Custom coded
 Design by: David Berrazueta & Byron Navas
 Associated Filenames: ANN_test.cpp, ANN.cpp, ANN.h
 Purpose: ANN software version for BSP Standalone (ARM Cortex A9)
 Revision History: November 11, 2019
 *******************************************************************************
 ANN v0.1
 *******************************************************************************/
#include "ANN.h"

int ANN(float input[400]){
	float w1[20][400]={{7.647257262593015e-01,8.471487395560140e-01,-1.107873326649496e+03,-1.474155806941741e+03,2.398898320665280e+03,2.859859550872968e+03,8.566187406339643e+02,5.641939774339027e+02,2.233526983387072e+03,3.672579745124631e+00,5.540092858249853e+00,-2.135586380565562e+03,-8.837302665389926e-01,6.086818229964174e+00,8.343870129374952e+02,-7.559538291571082e+02,-1.132239204003198e+03,4.126863397693703e+00,8.233731293074666e+02,1.442574688666902e-01,-1.754742093825962e+02,1.533361201736891e+02,1.949320788508300e+00,-5.262922555503588e+02,-2.119715784508587e+03,-3.674419214904758e+03,3.313134068521256e+02,1.312258123184169e+03,-1.430734929799496e+01,-3.347631855827029e+01,3.173425567223828e+00,-3.061319733649987e+02,1.885920333319595e+02,-1.666259900519472e+03,2.863578163568805e+01,-1.072767884729074e+02,1.901501328155414e+03,-1.465541928688698e+03,-1.653698645459109e+03,5.059717410856721e+03,-8.544310617745549e+01,-1.072825164004671e+01,-1.177228440020699e+00,2.014328563190255e+03,9.483751112120125e+02,2.490421803472126e+03,3.987422766413607e+03,2.504239424628378e+03,2.052055734116947e+03,1.623999800642334e+03,-1.421737376496629e+03,-1.889627201707287e+03,-3.664917138875052e+01,-4.741404824352118e+02,-5.838848002963638e+02,4.233298782751604e+00,7.323385912809862e+00,1.874912590348986e+03,1.164167938122906e+03,-6.204309587912239e+03,-6.990353189347873e+00,-4.254756911936001e+02,5.529550241406400e+02,9.174822812316249e+00,3.320252184691358e+03,3.837953995838434e+03,3.552899814393444e+03,3.304887899473988e+03,1.721405745002079e+03,8.257541323776849e+01,1.567930073005145e+02,4.521662100447858e+02,-1.622892677286876e+01,-2.904557943441605e+02,-1.571227119440133e+01,1.551066021742536e+03,1.661404365960709e+03,2.278341358083959e+03,1.808303871557512e+03,-1.562417680228840e+03,5.869201182112806e+02,-1.544065412115167e+03,4.340050953400914e+01,1.226627659169174e+03,4.148197756430957e+03,3.828442198122758e+03,4.230845212455927e+03,4.054019773670124e+02,1.849701275513741e+03,1.209454548509069e+03,3.161096694092020e+02,-5.481039162940412e+00,-1.354558632750690e+01,-1.196033352262400e+02,3.186337796269950e+01,7.999542413277024e+02,1.955478820997623e+03,2.060017236952879e+03,9.641570859138697e+02,-1.004361680307472e+03,-1.837092976440959e+03,-2.698607617761443e+03,9.442211267244650e+02,1.921652209759920e+03,3.361324933232500e+03,2.713179917887481e+03,2.071717763805872e+03,7.308762292979754e+02,4.402937936614643e+02,3.169022039946672e+01,-8.333559347002577e+00,-4.039117402890130e+00,-3.851081492985535e+00,1.266421291755622e+02,1.250333585265820e+03,2.164520107205287e+03,1.883073805631003e+03,2.401751837363296e+03,1.009953605146413e+03,1.138489812127921e+03,-8.250735041944683e+02,-1.637038788442608e+03,-1.041330160584504e+03,8.060379863512393e+02,2.986120219077726e+03,2.601548587554427e+03,1.497672653362298e+03,3.739371259386039e+00,-2.019521397858844e+02,-4.227074440178616e+02,-1.460527975038381e+03,-6.180055144646938e+00,6.148168850594601e+00,8.438198448463062e+00,-2.211346813541088e+00,1.679051009402885e+02,2.900056218728998e+03,1.694645316821067e+03,5.388024778241150e+02,2.272893704617394e+03,1.782897478500294e-01,-1.233196015031862e+03,-3.076885692854058e+03,6.729197370510602e+00,2.865434473919925e+03,8.593612678212205e+02,-1.619090188069775e+00,1.290584831405064e+02,-1.574252381087392e+03,-1.459731604352944e+03,-5.511249938300386e+02,-1.053607333770051e+01,1.702920770133496e+03,6.684819599140490e+02,-1.284295494197822e+01,-3.492162942092835e+00,2.447352045073587e+03,1.259690548979407e+03,9.792437760742855e+02,2.425154194179485e+03,1.422005959247609e+02,-1.498365086431765e+01,-3.331519911078638e+03,1.116569151277473e+03,1.860589288334175e+03,-1.281221714796879e+00,-1.370124659803734e+00,-1.531519463788617e+03,7.265436418694303e+00,2.877822294994469e+02,-1.714337439365012e+00,1.784480789389593e+01,3.668663563333018e+00,-1.326013592316563e+00,-1.250776012612775e+03,-4.686262794875637e+00,2.860690449078666e+03,1.905515041999139e+03,1.255690629698713e+03,2.027037284045389e+03,6.321489413331522e+00,-1.384231122341410e+00,-4.623134578523094e+00,2.135479309803222e+03,1.216796725741936e+03,-2.224522330211386e+00,-2.787020583914727e+01,7.091402946525910e+02,2.221631376313779e+00,2.121395828109197e+03,3.177542117540187e+02,2.088639988392768e+01,9.734455909490789e+00,-1.816037994432084e+03,-4.208219749392000e+02,3.529504417441303e+00,1.836432457408810e+03,2.398167538414938e+03,1.327983519963367e+03,1.721201853697230e+03,9.241695240747136e-01,-1.167301811165117e+01,-1.417802593428456e+00,7.721190594032868e+02,3.718252556829765e+02,-3.455443229475759e+00,-2.161127264283917e+00,1.283353380501678e+02,2.161152171269006e+03,3.097145365340915e+03,2.593178591743868e+03,4.597842772225230e+01,4.447517718553696e+01,-1.214454630049750e+02,-3.444397689855598e+01,4.875950067824537e+01,2.338684269920286e+03,1.399420002009825e+03,6.351872112960784e+02,1.426870801309349e+02,2.345007315880422e-01,7.637589967710400e-01,-3.646489059689157e-01,1.986118329367866e+02,1.234653108326032e+00,-1.044590033750949e+01,3.588888943769358e+02,2.749195900433280e+03,3.022432099111776e+03,3.410682068820101e+03,3.160868359292242e+03,1.779626617596924e+03,8.480202437358131e+02,2.266977429194268e-01,-3.987376890964726e-01,5.847832228864208e+02,1.347462763433874e+03,1.875820970270939e+03,-6.808789298140039e+01,1.817830358589105e+03,4.837318927810233e-02,-1.496919634296550e-01,-1.625441487930845e+00,2.482706623510256e-01,5.882903119209138e+00,1.170312397450506e+02,3.122474680069483e+03,3.689907905820733e+03,3.891815018018510e+03,2.337465706194212e+03,1.031178102004671e+03,1.494091993158290e+03,1.577005627512604e+03,-4.054772596949314e-02,-4.981563737452830e+00,4.182461076957976e+01,2.625676929242338e+03,1.204306523369947e+03,-1.818680495135725e+03,6.156960572767729e+02,1.545921292877525e+01,-3.571417458241413e+02,-6.922556029619870e-01,-7.731453848747020e+00,4.248727060214244e+00,1.105895776674486e+03,3.356465059187573e+03,2.886016152410828e+03,2.677614111346457e+03,1.201817742360405e+03,-1.880971173159953e+00,-3.419229837411579e-01,-2.389759069268106e+00,-1.863154792098990e+00,-2.021102450934958e+00,6.290506044989453e+01,1.979619668754790e+03,1.619584313895919e+03,-1.011420708616099e+03,-1.849753996881061e+03,2.820711358899985e+00,-4.704236762732383e+02,-6.662423907873979e+00,-1.053309583998132e+03,-3.573570281223369e+00,9.088690366075068e+02,3.394271269654224e+03,3.179874823970948e+03,1.284716883814139e+03,-1.384896562475317e-01,-2.740061416556742e+00,-5.275428723179542e+00,-2.360607986795754e-01,-1.365093956426175e+00,-5.275413423807323e+00,4.119666030738978e+01,1.506516898241503e+01,-9.217560724082048e+01,-7.572807658800330e+00,-1.235261868740996e+02,-1.935883620089611e+01,1.000508056531835e+01,-4.450961052300137e+01,-5.272558106789565e+02,-1.552931046460632e+00,2.656034372044268e+01,1.206774618411609e+03,3.902199518235218e+03,7.594237912142121e+02,-1.275956906586705e+01,1.711409411573039e+00,5.606196179529130e+02,-6.030544575561316e+00,2.664065848841677e-01,-4.310052479718423e-01,-7.723157057022690e+00,-1.405175843672054e+03,-1.785935442318625e+03,1.877052294592046e-01,5.726151889245163e+00,7.186705967272395e+02,6.244854103138411e+01,-9.097721332087185e+02,-4.038523370321302e+01,-7.346659170129574e-01,6.310763821076077e+02,1.520867096609824e+03,2.781305957190348e+03,7.511728208297977e+02,1.595842954236397e+02,-1.848568785685669e+01,1.264587976651024e+02,3.339663385336528e+02,-2.633252066158654e+02,-2.973827193210882e+03,-2.323455623159220e+00,-2.711477859817544e+03,-2.981967444131073e+03,-1.503622057806698e+00,-8.195901272517619e-01,8.807119243340139e+02,-5.279242355456865e+02,-1.718502744843908e+03,-6.534286881628050e+02,-9.715852827167853e+02,-1.186154598689077e+03,-3.168829348364584e+00,6.441726291679577e+02,9.075037448978442e+02,-1.051545780157628e+03,-8.147222636381171e+02,2.083801690686971e+00,9.305599926918990e+00,-4.533979367574048e+01,-4.930290055277783e+02,-3.287788976504288e+03,-1.229257327903101e+03,-5.637116057296961e+02,-2.614797380787038e+03,4.171972104309337e-01,-1.875177165478500e+02,3.735942843758555e+03,-6.105953041938527e+02,-3.989538283483322e+02,-2.680876296247908e+03,-2.784627962368949e+03,-3.750558918616846e+03,-2.906904817361313e+03,-2.586545208487677e+03,-3.163347644437309e+03,-2.115883325414769e+03,-2.429030033468296e+03,-2.169793337074415e+03,-1.347611581541465e+03,7.955338819243121e+01,-3.431907777025441e+00,-4.449904367227273e+01,-6.564656307060551e+02,5.722081628887940e+02,4.357325761920300e-01,7.783458380709003e-01,-5.021034732453956e+03,6.757232479715282e+01,2.915970102875640e+03,-3.595517825479059e-01,2.016868916312525e+03,6.878315539443502e+02,-2.641390296014314e+03,1.069665940563517e+03,3.235319319700296e+03,2.816361693296948e+03,1.771366563084718e+03,2.146433324217821e+02,-5.761163126797532e+02,-2.448219136316023e+01,-2.284961461686518e+03,-3.548204850413070e+03,-1.762100318121905e+03,3.301025087072524e+03,1.207034108577588e-01},{3.189668419413628e-01,3.072045773781461e-01,-2.253803080412677e+03,-2.220960254410033e+03,1.392437817497033e+03,5.119124418722718e+03,1.237126769276614e+02,-4.543377653817198e+02,3.333737445044447e+02,-1.999566341866297e+03,2.738450397776178e+03,-5.851846809064809e+03,-3.622651614425047e+03,6.620503608338202e+02,1.816816989625352e+03,-3.806028136068924e+03,-5.847120079188657e+03,1.431816887491324e+03,5.250345463797574e+03,2.511715708349763e-01,7.777164797273565e+03,-6.551801234193827e+02,1.055412819046068e+02,-1.778322979274376e+03,-5.875991499139145e+03,-2.994969006745938e+03,3.281602668684556e+00,1.916565256526439e+03,4.363117944188167e+01,-1.631332132261946e+02,-4.635124883185904e+02,3.847233739909510e+03,2.593087128074923e+03,-2.908628410225500e+03,-3.240370803822754e+03,-1.587802834066658e+03,-1.570808851686967e+01,-4.395170821245435e+03,4.773069239428004e+01,3.004871797040277e+03,-6.397810796955554e+02,4.863967264991975e+02,-9.691170539540731e+02,7.621227185087279e+02,3.240789573903410e+03,2.420461009205678e+03,1.516496769610314e+02,7.713631261865247e+02,2.036662461960582e+03,3.910551532458142e+02,-3.767479967290390e+02,-2.005332582045430e+03,2.338171368787118e+02,4.868680387999772e+03,5.682230515021083e+03,6.603690726231474e+03,6.202888127354634e+03,3.688621941805545e+03,-1.021226031522012e+03,-1.711694522280983e+03,-8.038901828353530e+03,-2.296365178665033e+03,1.533724413802573e+03,2.191567288472163e+03,2.637286053269035e+03,3.128210534898060e+03,2.178462873241531e+03,1.014026709799667e+03,6.719274590224986e+02,3.036774292164383e+03,1.174097107764980e+03,1.210374368422727e+02,-1.058004322252437e+01,5.248848165851706e+02,3.698856315228061e+03,4.767093810489541e+03,6.326200415282538e+03,4.540572678414502e+03,1.506319762350207e+02,5.623181007212944e-01,-8.051691083052498e+03,-1.126459322730607e+01,1.177316545070002e+03,1.600539120112873e+03,3.340263593111788e+03,3.026492662442825e+03,1.735913850822223e+03,8.930417406984639e+02,1.972227750429432e+03,2.477257280306901e+03,3.244742337845316e+03,1.467829645450364e+03,8.539055013756638e-02,-6.843007203631426e+00,-5.339597859704578e+01,5.732742995008709e+02,2.389691920886651e+03,6.377365618733952e+03,3.213746449505426e+02,-2.807938081503523e+01,7.652885135324840e+03,-4.758563866825153e+01,5.760854262683836e+02,1.845024337333969e+03,2.170452082792502e+03,9.205742966889263e+02,3.903526654226650e+00,7.319640987480997e+01,1.092699890733561e+01,2.166098640025502e+02,4.915385561962388e+03,5.377756213309771e+03,9.943673634980178e+02,-1.699063411473996e+01,-1.039345410412859e-01,-1.415795429613933e+03,2.423490763394225e+03,5.923898987570958e+03,2.578407674064018e+03,5.209770061293370e+02,5.608602955920422e+03,2.091462998211942e+03,1.285911384058747e+03,7.666344784061523e+02,1.432072366422111e+03,6.588144199719427e+01,8.196436312815754e-01,-6.940976678162120e-01,-3.228761614793953e+00,1.049158776366108e+00,3.808472276028024e+03,4.108838884435840e+03,4.198929962495766e+03,1.126679423863735e+00,-3.413423468087082e+01,-3.249758036005076e+01,-1.998370515054210e+02,5.245061465587603e+03,4.282119860773579e+02,3.571941341040153e+03,1.707928730756255e+01,4.931112178940067e+03,1.459527096369090e+03,6.706408047450776e+02,2.573766940781248e+01,1.776434794423461e+02,1.604792309263964e+00,-9.132448763528229e-04,-5.521426996643304e-02,1.252941627985172e-01,1.329874543494479e+02,1.814699985090918e+01,3.874923337948085e+01,2.429583441346160e-01,-3.524225523959093e+00,3.707502025400398e-01,-5.984490558776423e+02,1.517316025330529e+03,7.178423357899713e+01,3.560727773354024e+03,-5.363492298862059e+02,7.008227518539219e+03,1.375687253761721e+03,7.293993456443596e+01,5.039091797007624e+02,-2.851412657358219e+02,1.361408686976387e+00,8.263194392632540e-01,8.390264802528200e-01,1.204818453260480e+00,-1.096818651003364e+00,-9.642668892851251e+00,7.502199599863753e-02,-8.519359620209024e-02,2.376625752548732e-01,1.323351770899871e+03,-2.411537834537235e-01,7.736114145021224e+01,7.210347790570772e+02,3.688535287584890e+03,-3.213523567816275e+03,6.818462560437421e+03,1.343446902764045e+03,1.395539039740460e+03,5.770389479677906e+02,7.221088241700618e+00,2.642892597078034e+00,5.596093043757112e+00,9.891324311190223e+02,-5.235514210172687e+02,-5.289261963906433e+02,-5.877238613800685e+02,-2.970741328877887e+02,8.565148668658155e-01,3.337712870871470e+03,3.885532721051787e+03,8.519248213711645e-01,1.351830940769757e+00,2.798746330758826e+02,6.237645078962280e+03,-6.878350735778053e+03,7.214948606013759e+03,5.246349097445783e+03,4.071246215496372e+01,2.954022208671898e+02,1.416535018671071e+03,6.948994022676185e+02,2.340359482649489e+03,2.975167262513869e+03,-4.211443228533954e+02,-3.637276587032752e-01,-8.292139124616974e+02,-3.272767918464659e+02,4.531103641490787e+00,3.571320380857851e+03,3.631695091756776e+03,2.880913754525967e+02,2.249198642773708e-01,1.043200420279465e+03,4.776818755209081e+03,-3.526378345725151e+03,5.917321893563772e+03,4.659897176974108e+03,1.235256316077669e+03,4.471470909077569e+02,2.037993941224058e+01,6.405604762465791e+02,2.068048865837317e+03,3.395250363020846e+03,6.027420506179064e+02,3.373733004684526e+02,-3.188718181722880e+00,3.826432714377358e+00,4.345244637684007e+03,4.700654685808057e+03,3.799933088325716e+03,1.666104322362250e+01,-7.510840434667026e+01,3.846127774622301e+03,4.601157341249778e+03,-6.033860356667905e+03,6.395998112632315e+03,6.215696165174182e+03,7.362755567755527e+02,-1.235850628929177e+03,7.217441969561122e-01,5.977240292004379e-01,1.259056964616580e+03,4.404312222923972e+03,4.948418914996027e+03,5.732312057411631e+03,5.429816669326882e+03,4.435419961016316e+03,4.171329684245677e+03,3.540847330705202e+03,8.467968705236383e+01,-2.921341582578449e+00,-6.867909114749262e+02,6.146036929038312e+02,1.478385376912639e+03,-8.009466989743933e+03,7.815125669648028e+03,6.121421672204234e+03,-9.215978091205187e+02,-1.013810143686559e+03,-8.570613104964160e+00,3.431652204924455e+00,3.582936923273170e+03,5.421203169087947e+03,5.207395608941883e+03,4.953185007339418e+03,4.635834039034751e+03,4.444349017968259e+03,3.900859079416213e+03,4.408595114712406e+02,2.968444602653404e+02,-1.486358422831615e+02,-1.010955208924303e+03,-1.441833157207806e+02,1.963606139961275e+01,-4.453111497232992e+03,6.415012756518516e+03,6.203237730007346e+03,-2.067528552718655e+03,-1.620539576417887e+02,-4.027163475046671e+01,2.576694927426519e+00,2.430807186008186e+03,2.854374163977100e+03,4.823772749785472e+03,4.846417048312254e+03,4.213635144648350e+03,4.389766338466739e+03,4.298497996784888e+02,6.335232439366696e+02,1.909955145130359e-01,-6.879965635145281e+02,-2.396340350914157e+03,4.404292060283454e+02,-8.545758834008038e+02,9.349911395228107e+02,4.509289683255800e+03,4.238211764639162e+03,-7.167050829566783e+02,-3.669213614345676e+02,-3.049851609774574e+02,2.008396928608681e-01,-1.098366516234426e+02,3.119454447135697e+03,4.709956356815584e+03,5.219261274688887e+03,4.106496040622786e+03,2.670942284127275e+03,7.793021544911043e+00,1.392509600739934e+01,-9.608177695855461e+02,-1.255427431593820e+03,-2.156882466192794e+03,1.220700466030570e+03,2.257327594922616e+02,8.332431513433733e-01,2.823178262694024e+03,5.450572335883306e+02,-1.553022432465564e+03,-1.492716767718219e+03,-3.950253120067875e+01,-1.165836023296197e+01,-3.377005032323463e+00,3.710743976769002e+03,3.161034932130682e+03,4.201547168521354e+03,3.923220542593740e+03,2.626630266938841e+03,-3.337771313251650e+00,-4.149103838262870e+02,-1.956701505553219e+03,-1.270234656376963e+03,-1.255312100368706e+03,1.837679509868482e+02,-1.446665358757607e+03,-1.937052336143911e+00,9.800487762956677e+02,-4.331177950959486e+03,-2.303690534114329e+03,-2.816815192218728e+03,-4.046109229183531e+03,-3.135054019145522e+03,-8.721101026244111e+02,1.974863212997832e+03,2.542979173307451e+03,2.630844938535442e+03,2.679116886381091e+03,-1.426650615367776e-01,-6.449780292737349e-01,2.020454225979791e-01,2.788966627344281e-01,-1.482756387432679e-01,-1.753885133607105e+02,5.193975152306389e+02,-4.091138023422657e+02,3.050284240690407e+00,2.851030812264804e+00,-1.110778430923487e+03,-5.079738465433288e+02,-5.581608196720970e+02,-1.879809726767929e+03,-3.160288865666645e+03,-4.909025690271948e+03,-5.812040478189786e+03,-3.031518812317909e+02,6.327348044996053e+03,1.005533521164001e+02,-6.819795500037150e+02,-1.813682878026039e+03,-3.180540312561477e+02,-6.156337982709521e-01,3.638029800734131e-01,5.886608673567968e-01,-6.577482483072768e+02,3.378354816787460e+03,2.546592781132632e-01,-8.169188803234440e+02,1.951232367766256e+00,2.018307710748983e+03,1.014817115403721e+02,4.701451330271846e+02,-1.227618495428733e+03,5.490365734251722e+02,-2.031893993581035e+03,-5.780546117138538e+03,-5.563131561925171e+03,-2.617324967443733e+03,-6.396462167255891e+02,-2.537726414526965e+01,6.413522460309206e+01,-3.073905980128344e+01,-1.004344711881210e+03,-1.474716421869990e+03,2.301750634653789e+03,1.287549220622289e-01},{5.227317959340231e-01,4.073699446895753e-01,4.266684207140230e+02,-3.000039899440538e+02,1.209488364682822e+03,9.656890367254898e+02,1.145789667756169e+01,6.563495033646799e-02,-6.710754856159616e+01,3.477417859513373e+02,3.112084990445259e+03,-5.337571628755150e+03,-1.518419186645736e+03,-8.700721538775095e+02,-3.684266192428583e+03,-4.528460765192152e+03,-3.158506358603697e+03,3.982789982541533e+01,5.139650886526068e+03,3.157974439461542e-02,-1.634723423108741e+03,-4.612626232922578e+02,2.942140542187294e+03,-3.025441056754397e+03,1.876886079664080e+03,4.301073628807033e+03,-3.898809284284402e+01,-3.557551115101025e+03,-1.314815871093096e+03,3.755519496621232e+02,1.696578499835403e+03,1.343607569009031e+00,3.776024436475829e+02,7.204984507748373e-01,4.236559370595141e+02,2.345380689458170e+03,-4.336981364193890e+02,1.014189083238986e+03,3.536392544526895e+03,4.836965365262489e+03,1.149586694144947e+00,-5.790595267364854e+02,-5.459742934543419e+02,1.185075483500327e+03,6.534860602062975e+02,-7.517726804521598e-01,-5.188923507572595e+02,-3.602872332959974e+03,-3.022736858051511e+03,-9.174549725339314e+02,1.290595872570390e+03,3.088850777005702e+01,4.230656513088665e+03,2.726656580512042e+03,4.069331989341681e+03,5.154207904898351e+03,3.979503500440735e+03,3.841961643903834e+03,2.185349168214601e+03,-1.904332455357419e+03,2.694072161093857e+01,-6.563284795561924e+02,-1.390316828679481e+03,3.842691118201553e+03,5.672369858183242e+02,-1.239511549208612e+00,-7.705368281243491e+02,-3.609332492640391e+02,4.339658811154740e+01,-1.132280047382972e+03,5.122452762470571e+02,2.327545180134470e+03,3.655273663149702e+03,5.772884320127513e+03,6.288549360198669e+03,4.372151680544443e+03,1.595866525495466e+03,-2.425212589372969e+03,-5.040452592525680e+03,-3.363494313461348e+03,4.308820717568071e+03,-3.431270799115101e+03,-1.252674960426230e+03,4.388451467324795e+03,-4.904509239905477e+02,3.985035855076076e-01,-1.976406678108461e+03,-3.993774257131843e+02,-1.455820109851559e+01,-2.292872311726979e+02,9.992850605983705e+01,3.154582224403922e+03,6.141665027421177e+03,5.903265965916015e+03,6.047530944541331e+03,5.813233921255161e+03,2.295322801185275e+02,-3.534262784982027e+03,-4.659893222270810e+03,1.084536185293911e+01,-4.231010191888608e+03,-1.904194653565238e+03,2.640356488771399e+03,5.326881735354187e+03,1.932155384073185e+03,5.981202064175623e-01,-1.930901115354654e+03,-1.714423983688860e+03,-1.146092640239881e+03,-1.090390559283881e+00,6.563501704440144e+01,3.194826239317436e+03,4.923200792850147e+03,6.078987807696824e+03,5.952233327465832e+03,5.741225339466873e+03,4.224943359097476e+02,-2.457062302795239e+03,-4.202605081251122e+03,4.884882704780551e+02,-4.302565700153698e+03,-1.560233944597994e+03,4.105682440583089e+03,5.946331539973831e+03,4.154311242230486e+03,-6.907035918647184e-01,-1.033340721789606e+02,-2.976720528580153e+03,-6.206887187633051e+02,-1.114913197017482e-01,3.487712033787907e+03,4.086462317145524e+03,5.070629713503380e+03,4.712554651197363e+03,5.079783192466434e+03,5.770761089916922e+03,3.378515766475878e+02,-2.095392945242334e+03,-3.435978933011418e+03,1.353803646033138e+03,-1.118903054061338e+03,-1.401405479062348e+03,4.402785959793900e+03,6.051057819576734e+03,5.256550689692398e+03,-7.443093548612833e+00,-2.662489870658821e+00,3.620350373994747e-01,6.011145319639746e-01,3.379635512996342e+02,4.909739275940760e+03,5.210645421194429e+03,4.785287487686775e+03,4.557007423463423e+03,4.060532349643054e+03,3.880198864119629e+03,6.280508652943893e+02,-1.277371143212822e+03,-3.867180643325100e+03,1.663702585104613e+03,-7.711322649659476e+02,-1.279072701789631e+03,3.748288650164091e+03,5.613824255738255e+03,5.228325764567662e+03,1.775540382605411e+02,-2.610512513139235e+00,-6.251265607036057e-01,-1.768903549216373e+03,5.281101477276067e+03,5.986931668566926e+03,5.006418980672439e+03,3.472220036096600e+03,2.324592635271107e+01,2.743829343694936e+01,2.943914782184480e+02,4.985510045404042e+02,-1.785723610265863e+03,-1.902386666579494e+03,3.706434684424367e+01,7.035194845824027e-01,-1.007527183802501e+03,3.937325830606903e+03,5.625622989736928e+03,5.264290204419101e+03,3.639181765708969e+01,-2.956524706256748e+02,-1.694266894864463e+03,-1.031740735983183e+01,5.238495101223103e+03,5.322915899106178e+03,3.736923365831728e+03,-1.576513493154257e+03,-1.736313810986411e+02,-5.427884359592822e-01,-1.980499491305659e-02,-1.605255197850544e+02,4.717890211395573e+01,-1.127793806617282e+03,-3.756083216555265e+01,1.765245201297272e+01,-1.048228294364795e+03,2.007181931469486e+03,5.619917810106694e+03,4.424125166584915e+03,2.981660511448124e+02,-2.118859703217991e+03,-1.911059002957981e+03,2.514177830745394e-02,5.853749409982507e+02,-5.101680013824171e+01,-1.076861227040786e+03,-5.983716691785741e+00,-1.477748510737158e-01,-3.413645868670780e-01,-5.630954699046543e-01,-2.072523201523463e-01,-2.873810155066171e-01,-3.105218964098614e+03,-2.012271147344911e+03,3.326849289754473e+03,-1.096857412098137e+03,1.813839999125182e+03,4.799248982630776e+03,4.088324738185964e+03,2.284515868671204e+01,-2.236917290772618e-01,-4.991630327284050e+01,-3.483383802326977e-01,-8.151643442522193e+02,-6.057457993873841e+02,-5.945033975076127e-01,1.176414253591736e-01,2.782155962494167e+00,1.727068590846185e+01,1.064432871018555e+01,-7.618452081686331e-01,-2.012599665492100e+00,-2.811581395549264e+03,-3.569227339787536e+03,2.496931569873911e+03,-8.007764585596610e+02,1.391689009274091e+03,5.065199169689330e+03,4.680103107549949e+03,2.126212028995393e+03,7.165463652890991e-01,-1.677692356094008e+03,-1.537266703777595e+01,-3.032295762790901e-01,6.988323404587004e-01,4.754784440488233e-01,1.390721955580264e+02,1.415013121948173e+03,2.746791060381220e+03,2.796009744176254e+03,1.492367198500715e+03,3.711392596038810e+00,-3.020984405085177e+03,-5.482561713860976e+03,4.279488820626757e+02,-2.308237651109389e+03,6.459629612757598e+02,5.604387871765744e+03,5.790155795768104e+03,2.449802933836801e+03,3.846566394336808e-01,1.924818593313596e-01,-5.807655681247731e-01,4.890200580976356e-01,4.879707188259805e-01,2.404504788868911e+00,4.989054566234798e+02,4.446252502223761e+03,5.885295158217974e+03,5.800924851204652e+03,3.681039633395666e+03,1.955053803187722e+03,2.629564736461254e+02,-1.164902394552997e+03,-2.683951843699775e+00,-1.510678047838910e+03,-4.836873076207990e-01,5.412445315340716e+03,6.190453134607453e+03,4.008888272689330e+03,1.838329027175685e+00,-4.674574262596882e+00,-2.340058005696739e-01,-3.984936308177306e+00,4.294405381718768e-01,-1.259144315558273e-01,1.799234769656800e+03,5.616757675561947e+03,5.747142652016458e+03,5.887340639741917e+03,5.048618512958261e+03,1.325971787642869e+03,2.036697800952074e+03,-7.335274571102900e+02,2.724024083995327e+00,-2.853260518092638e+03,-2.459723876846429e+01,2.918228155043803e+03,6.001613582362284e+03,2.376257050632055e+03,6.324518411598297e-01,-6.225894060764406e+02,-6.914054044799636e+02,-2.426988475001360e+03,-2.600144622450426e+03,-2.943271122728107e+01,2.928762918842900e+03,5.803743091541384e+03,6.204268964760015e+03,5.762180953991937e+03,5.907036156945188e+03,1.849486728168209e+02,-3.216260731949717e+03,-3.956072416017103e+03,-1.952950779181119e+01,2.333440140761331e+03,-2.824643720567307e+03,1.309589197908249e+02,1.471869436934301e+03,1.771194094684984e+03,-5.672136071934750e+01,-2.357551421128948e+03,-7.622722285318496e+02,-1.860799701454352e+03,-2.111547351258770e+03,-9.851591636192014e+02,4.528013501236395e+03,5.973873425871272e+03,6.789010634581890e+03,7.028379630325027e+03,6.760778013754491e+03,1.501914839219340e+03,-2.376797878223585e+02,-1.449786408983761e+03,-4.339829876539298e+03,1.588901428216619e+03,-4.036279583450000e+00,-1.191442166789286e+01,1.945573360412896e+03,3.931689379461849e+03,3.921301704327313e+03,1.167948331714530e+03,-1.867328434709693e+03,-4.928836214268953e+02,-1.241147777473129e+02,-2.227539891368403e+00,4.830896958383060e+03,5.098985500866425e+03,6.495839831424661e+03,7.293956443334355e+03,5.409469851174360e+03,6.992285268847675e+02,1.925604536368197e+03,3.418570236101714e+03,3.128713304138248e+03,-6.548003227959271e+03,2.641193787451836e+03,6.026109046101280e+03,1.906058567054579e+03,3.084462255375926e+03,3.638454920655473e+03,8.375537384634854e+02,3.672966429208365e+03,2.120045534013979e+02,-3.747671366866046e+03,4.726629693226608e+02,6.925769571687531e+03,7.320448033738766e+03,5.803565694008693e+03,6.965913839481210e+02,3.338564358341619e+03,-1.517488513982767e+03,-8.067288133335971e+02,-1.900985052900621e+02,8.627131039760035e-01,7.215065596800479e+03,-3.590989661726810e+03,-1.789647653434172e+02,2.278338163193687e-01,-5.548122024280855e+01,-1.806669279136478e+03,2.165416293860539e+01,-2.885601127606580e+01,1.885664772754366e+03,5.462928733190925e+03,3.420026488911632e+03,2.720372478039515e+03,4.081086063387184e+02,-6.905199012351413e+02,-2.255536413668456e+03,2.938365216270563e+03,7.517701593966317e+03,-2.356385962271524e+03,3.170405942892761e-01},{6.584858788586269e-01,8.611764499227765e-01,8.833371366102442e+02,1.446725444392577e+03,-3.998908506200669e+03,-1.397598880519204e+03,1.855140844597034e+03,7.831782231829857e+00,-5.693943312287142e+00,-5.653799123824632e+02,-2.645466995825474e-01,4.176172255727306e+03,3.622310373828986e+03,4.352894740740661e+01,1.340943908563847e+03,3.205486752572954e+03,3.388070952997678e+03,4.181400561933695e+02,-2.712287374692485e+03,8.661507969760429e-01,3.104103077853399e+03,-1.649591323301053e+03,-1.844579236232558e+02,3.443198795364832e+03,1.056125555614964e+03,9.233372216919639e-01,1.161944761523017e+01,2.853633565845556e+02,2.019393992190110e+01,2.228362681263413e-02,-4.298481106775744e+02,-2.339470020708690e+03,-1.867047879139553e+03,5.748360807765903e+02,4.202833544983336e+01,-1.222669510260952e+03,-5.734557345033581e+01,3.950082116926405e+03,4.802876345869059e+03,-4.300890847111716e+03,-6.141772056557315e+02,1.183305495290326e+03,5.198772819296306e+02,-1.258154709292786e+03,-3.038315628122689e+03,-1.814205460463960e+03,-2.691598146552345e+03,4.280674928912919e+02,7.452877669006123e+02,-1.420877843845522e+03,1.354307606566529e+02,-8.836094696682505e+00,-2.556190661895462e+02,-1.446909674709033e+03,-1.995992528073994e+03,-2.970677761282444e+03,-3.071717954941651e+03,-4.746315381921226e+03,-2.512606728161810e+03,2.424239445610268e+03,-1.522647624897993e+03,1.892557340996957e+03,8.938176002462784e+01,-2.701456187226627e+03,-2.899638836923302e+03,-2.006164242441311e+03,-1.494882058441244e+03,5.065362249454619e+00,1.122110795611574e+03,2.343957514651550e+03,3.798581000135057e+02,6.022148580973935e+00,-5.259663534135958e+03,-4.687085437114762e+03,-3.320315421730569e+03,-3.062105447626494e+03,-1.193045073869907e+03,-3.555453094938542e+03,-1.248196195707393e+03,3.348677200984047e+03,-2.609265087742722e+03,7.147736629198914e+02,-4.242227421202594e-01,-3.410603703502788e+03,-3.916405089083787e+03,-3.981626799355847e+02,1.094299122456190e+00,1.312012146534080e+03,3.753251885368626e+03,2.233312604220309e+03,2.184411273202260e+03,4.768316689831919e+02,7.918069452138138e+01,-4.392923336694254e+03,-3.757192211956526e+03,-5.303293293051092e+00,-8.205612597744759e+01,-3.914607706007801e+02,-2.148267144286873e+03,3.960496406276184e+03,2.156033167801028e+03,1.644358001581729e+03,-7.249329403923146e-01,-2.946667717143083e+03,-2.235331879027108e+03,-1.765427310491247e+03,1.868519897113034e+00,2.762059831200768e+03,4.967456400472578e+03,2.199671182046211e+03,1.441903046547136e+03,1.523116528593764e+02,2.056223831786003e+03,4.007610130340950e+02,-1.016071459696511e+02,-1.383193298559422e+01,-1.081891704899764e+01,-1.340688801938528e+03,-3.510998608029987e+03,2.939091789211010e+03,2.766962436155675e+02,1.163523237931013e+03,4.195719606450074e+02,-7.632592280098306e+02,-1.090578372423116e+03,3.704580466777812e+02,3.501176174476657e+01,5.013840786372457e+03,3.578814755353230e+03,1.962293351715345e+03,-2.913041748235956e+02,1.032569444287944e+02,4.291133995044935e+03,3.718025347564138e+03,1.447787675361855e+03,-1.483003542814552e+02,-6.637843907540748e+02,-7.549404534530569e+02,-2.335106496326646e+03,2.063715905429686e+03,4.684836202651608e+02,3.779378329790146e+01,9.638547092749848e+02,-1.283220296640080e+02,-1.111016631267384e+03,-5.383479909188231e+01,1.510207885245032e+03,4.604412771933911e+03,3.320844956301683e+03,5.870667998373218e-01,-7.074870813427987e-01,1.534474205041630e+03,4.366864343929450e+03,5.120122546455896e+03,2.127086621051945e+03,-9.745792832897474e-01,-4.549227573786546e+02,-8.611175570884925e+02,-2.357576267572432e+03,4.156486858591394e+03,2.486625670459159e+02,2.885688007335229e+03,-5.680735678374180e-01,-2.282315202391996e+00,-2.681448907177647e+03,-2.419919833717946e+01,1.753461848717309e+03,4.957883312346980e+03,1.084095000487846e+03,4.780607667127487e+01,-3.407563332956476e+02,7.486933771833899e+02,4.779709507895730e+03,4.519439615896306e+03,3.111230415712192e+03,-2.015851196787994e-01,-3.692709378385886e+02,-7.975382806648593e+02,-9.212109013048282e+02,2.157670707176919e+03,-7.509679067468096e+00,2.884466357630278e+03,-5.366103718780096e+01,-1.367332688248183e+03,-1.241199902938208e+03,-1.198032647061847e+03,1.083795436597678e+01,3.178889901198958e+03,6.196387972093519e+02,4.217759073061974e+01,2.750834990677030e+02,6.275877128863043e+02,3.200701428069458e+03,4.109064947509980e+03,9.970579988250042e+02,-6.759637336463256e-01,-4.451057528397930e+02,9.573902782879003e+01,-2.987776091824339e+03,1.062180854178417e+03,-5.810940921352162e+02,2.542812110949542e+03,3.819171257706582e+02,-4.222538598337902e+00,-7.094700143190414e+02,-3.206338530665784e+03,-1.319381467672133e+03,-2.944154416704613e+02,-2.064940096661883e+02,2.331394881899003e+01,6.506507605827835e+02,7.220534639448034e+02,8.963650567905416e+02,1.483880662991172e+03,5.325415850460683e-01,-8.032952909913028e+00,-1.013878895997668e+03,8.253898353576206e+00,1.607748206413159e+02,2.009728599932609e+03,-1.798042048398651e+01,3.049102457993901e+02,9.151947231444473e+02,-2.023560120818211e-01,-2.911875657500457e+02,-2.461393441588050e+03,-2.447716002096886e+03,-3.208851483626006e+03,-5.806801428921717e+02,-2.732413454484513e+02,-8.874228626287118e+01,6.682977984412697e-01,8.201552357709296e+00,-2.529732289021300e-01,-2.549254515150793e+00,-1.847911578828104e+03,3.561977026699695e+02,-8.152677948010414e-02,6.065668758053378e+02,2.514023633317443e+03,-6.115827220043572e+02,5.605409015353415e+01,7.627484710244808e+02,1.304769323407635e+02,-7.251288535202005e+00,-3.968402131837632e+03,-3.662518464097443e+03,-3.606606103191550e+03,-4.373145786268439e+01,-7.248076599295956e+02,-7.438841245696149e+01,-5.050744834602820e+02,-5.256496227611665e+02,-8.228664972384353e+02,-4.263757997724248e+02,-1.581983906351847e+03,4.261047673990722e+02,1.476048968652519e+03,1.357162108357249e+03,1.273852417533643e+01,-1.740612281648402e+03,6.755542517138029e+01,1.797629551757228e+03,2.278421786003168e+03,2.167036340863043e+02,-1.961373196672612e+03,-3.060183704632977e+03,-3.394218190616976e+02,-4.905328982585851e-01,2.403434349033707e-01,-1.660448930625252e+00,-3.204121899043056e+03,-2.959670137847232e+03,-9.283793967450836e+02,-1.601560064184823e+03,-1.380247300324295e+03,2.786869946562039e+02,1.255118974826224e+03,-1.883152606406247e+03,-1.777983384739881e+02,1.043163018274937e+00,4.776893801872959e+01,2.917278290471375e+03,4.409903939573740e+03,3.936931089304301e+01,-2.817510783464460e+03,-2.324303546632135e+03,1.533659111466165e+03,3.851007388447348e+03,3.759807968658963e+03,1.717120336413480e+00,-1.428413144665057e+03,-1.860693291246607e+03,-2.609721371722763e+03,-2.589119393317771e+03,-5.781623006101636e+02,-3.364991280032947e+02,7.236977280382876e+02,-4.525829160168821e+01,-4.177020457894311e+03,-1.489742359344844e+00,3.395010884520580e+02,1.918676624220718e+03,3.770904409706814e+03,2.969515161903162e+03,-3.076667544181316e+01,8.256805846198088e+01,3.454408601612388e+03,3.926250528829096e+03,4.135151575487318e+03,7.388042759098792e+00,-2.694022883846696e+02,-1.057992334652698e+03,-2.029147677495248e+02,-1.176811023082884e+03,-1.420173033593202e+03,-2.517678452490506e+03,-2.029536113987641e+03,-1.804532485503156e+03,1.212344828020452e+03,5.685135444221264e+00,-7.178657527380098e+01,5.071989415385194e+02,1.776073222577215e+03,3.710373249606008e+03,1.877500122810217e+03,2.158725314223423e+03,4.184339123838831e+03,4.978774381030054e+03,3.045156401374711e+03,6.929047622986400e+01,1.005911980774295e+03,-1.288992027502152e+03,-3.483020852149330e+02,3.469958417633303e+02,-2.675885050552040e+03,-4.567561143216481e+02,-4.379477312693723e+02,-1.546863531212212e+03,4.882554570791327e+03,6.108401507894692e+01,-7.847720037290757e+02,-2.167591000844913e+03,9.634401784000095e+02,4.080444674787149e+03,4.189790915599410e+03,3.458216504119783e+03,4.275835050268850e+03,3.140659808370942e+03,3.860313724063298e+03,6.015006391431302e+02,4.234811768906287e+01,2.641201752054048e+02,3.184202350169899e+03,2.150986074040957e+03,4.531988649861913e+02,-2.544610190133266e+02,-1.647240651226961e+02,-1.620078272805958e+03,1.240112705597112e+01,-4.041829512342266e+02,3.469920074084504e+03,-9.046956189943091e+02,-3.579745364015799e+03,5.602512527782811e+02,2.300336035519696e+03,-1.551295301657439e+03,-3.491528342598052e+03,-6.625152884638840e+02,1.271869605961041e+02,1.766707634628311e+03,-1.146978520691130e+02,-1.208507408928546e+03,-1.126568225429356e+03,1.010566509935621e+03,6.708008019305644e+02,7.164430491222515e+02,-1.525096703838486e+01,1.380232120961067e+03,-1.158101542885389e+03,6.664464781207858e-01,-3.596139204461662e+03,1.224216264194807e+03,1.873908271748457e+03,9.193310666893019e+02,2.289330424519223e+03,3.451214532846192e+03,-2.772379408337783e+01,-1.049424131102415e-01,-9.401604166228176e+02,-3.173467226387384e+03,-2.319949294113930e+03,-1.000320186441525e+03,1.553126591468627e+03,5.990166671318830e+02,-4.740481630584964e-01,-1.237032085392474e+02,2.515818181352983e+01,4.935453322402954e+02,2.352503898536833e-01},{1.737441810122750e-01,5.925774054446380e-01,4.843105214987017e+02,-3.344293270318425e+03,1.831487493101188e+03,1.287348200960016e+03,2.486941964067523e-01,-1.150286377289734e+01,-3.109143918720411e+01,-2.075854309101084e+03,-2.643581310189954e+03,1.615413132578516e+02,-2.596436432932749e+03,-4.942111735945992e+03,-2.848560277395609e+03,-8.992060695750172e+02,-3.364315800440755e+03,-2.545508360227379e+03,4.606790580626844e+03,8.275377273441685e-01,-7.381471892759486e+02,1.348631265529849e+01,-9.776440719089935e+02,3.200122031938021e+03,-1.981604534663044e+00,-2.834254377471103e+00,6.329710145647690e+01,2.926700766597131e+02,-2.528839747645375e+01,-1.889189968983045e+00,-3.605015824006590e+00,1.775271007040283e+00,1.774873520150226e+00,2.500970470933601e+01,-6.626087682146920e+01,7.763705870361540e-01,2.069686118356974e+03,-1.762378549847790e+01,-1.602312268028352e+02,-1.439982304674617e+00,1.642506580868940e+01,1.558715164877646e+01,2.292258986302637e-01,-1.630640944043960e+03,1.280814894357957e+01,1.760579993797739e+02,1.420083818401590e-01,4.255441823095802e+02,-2.772392463376545e-01,2.069317378101113e+01,1.492599064502128e-01,1.400476687475639e+00,9.994703520633764e+02,3.179320141286058e+02,2.700110601518660e+00,2.897699735020768e-01,6.659243944768899e-01,2.569179170951041e+03,9.698048320264021e-01,-2.998462730462082e+03,-2.249173680531448e+02,-2.868779006413271e+01,6.025537719486857e+02,2.825338931545020e+00,5.392110026806920e-01,-5.870777601962703e-02,2.367735299089386e+00,5.178824756272364e+00,8.974100849810843e-01,-1.391304467230213e-01,-2.204490859223242e+02,7.340768477139553e-01,-1.034676096294944e+00,1.455049895782950e-01,7.218729528775520e-01,-8.132326407378837e-01,-2.253841551856140e+00,1.505432872483369e+03,2.442616382495651e+03,6.512465341095697e+01,1.596446898315268e+03,-1.140600114992365e+02,4.724151550367340e+01,4.282459755386346e+00,-8.449239893508218e-01,7.003399231911909e-01,3.258665183957371e-01,7.712687491128223e+00,-2.021241939850204e-01,-1.491084295210940e+00,-1.906037204039351e+02,-1.404645346355904e+02,-4.535949305123722e-01,7.824583933699677e-01,3.974053360733526e-01,6.521586013813452e-01,7.260042133371820e-01,3.352923954216116e+00,3.026618800662724e+03,-4.247477747453956e+01,-1.972162975001105e+03,-9.279550156578198e+02,7.922947435939484e-01,1.072310343986666e-01,1.145165708717655e-01,1.241730857132951e-01,6.830409011576079e-03,1.909719119020347e-01,-6.920875116189267e-01,3.450555902415671e-01,-3.346790186494046e-01,-8.728993512718035e+02,-7.805680008926815e-01,8.026173839101086e-01,3.138804827291607e-02,1.887194688325026e+00,6.003053387206508e-01,1.042341040059410e+03,2.493842114041840e+03,5.164547441485922e+02,-8.082858178759409e+02,-1.814169557514521e+00,8.005332566852629e-01,-9.269757518816310e+01,1.499241285446079e-01,7.704229396618976e-01,1.511671642602780e-01,6.107996025458503e-01,7.530761969938253e-01,-9.529167015932705e-01,-4.165171481834986e+01,-1.135006677432922e+03,-1.290617989266171e+03,-3.001410143411817e+01,-1.263152687102297e-01,5.744840860124344e-01,1.439897551682137e+00,6.235562836191501e+01,2.222488378806862e+03,5.987328322348145e+00,1.644453401184145e-01,8.138258582531644e-01,3.975344210101493e-01,4.132903596521135e-01,3.049355342860936e-01,5.433362671829015e-01,2.680631131338497e-02,4.778770127213128e-01,-4.266889597565297e-01,4.202406250787655e-01,-4.542962315790525e+00,-1.529632201393266e+02,-1.326003500696108e+03,-9.463830516622336e+02,-8.213300251315089e-01,1.401463796249641e-01,1.806132129957496e+02,8.399391516087402e+02,2.635201411223916e+03,3.815415517949246e+00,5.710307519399659e-01,-1.205582915517762e+00,1.677411990958187e+00,-7.303261387003329e-01,6.111731591306038e-01,8.782898439375193e+00,2.226660551753809e-01,-6.153976328115252e-01,4.174919606757218e-01,3.811287359480505e-01,-6.605405892074955e-01,-6.058928052065435e-01,-1.342538615948750e+00,-5.131520157607910e+01,2.855401644970510e-01,-3.723622951801598e-01,6.441945651584297e+01,5.216577161323216e+02,2.039025711334254e+03,2.039115758262844e+03,6.350821725753057e-01,-5.604707349602605e-01,6.132363849770690e+00,-1.411337211538478e-01,5.674764740712951e-01,9.420796287431010e+00,4.261710655703836e-01,2.222396049529982e+00,1.129366126836768e+00,8.584381788412345e+02,-6.431003180740907e-01,-2.968771476945922e-01,-7.451136242792954e-01,4.166309109018845e-02,-5.675240869511735e-01,-7.872836877514922e-01,6.749994119447480e+02,2.920694328970004e+02,1.947261005693856e+03,2.570823713088004e+03,2.819832344734272e+00,-4.599176374522655e-01,3.248963735241406e-01,-7.316509523184929e-02,1.278066306895443e+00,5.327893080812180e+01,7.609730341244261e-01,2.479647631635818e+00,1.195394400920904e+03,1.479804653640688e+03,9.229061846466821e-01,7.799197820609189e-01,5.552540028967372e-02,2.041203164849601e-01,5.171393855221437e-02,-1.407598307006366e-01,6.889670389711264e+01,4.241794762142657e+02,1.224079074813968e+03,1.045646967816697e+03,-6.561632945222043e+02,-2.203680254312620e+00,3.396174281372868e-01,1.024887919095736e-01,7.549354212473965e-01,-3.109281869325520e-01,4.107051988212737e+00,5.878418053494263e+01,2.701047491753326e+00,-9.344028165633396e-02,3.419068922163053e-01,2.325535853912543e-02,5.100920840307440e-01,-1.093966922524487e-01,-6.244611279654692e-01,1.709543352928592e-01,9.572039943370106e+00,9.136162718116254e+02,4.441587095843872e+01,-7.592822462278885e+00,-2.301373957480930e+02,3.551845188969960e+00,-3.881389655674780e-02,8.000723110970477e-02,2.684507338716270e-01,4.961546515634181e-01,1.687485271015210e+00,2.558994048947530e-01,-4.880057991154149e-01,7.089381005430142e-01,3.335137786846951e-01,5.897865073604958e-01,2.635019899486692e-01,-1.029367602651768e-01,1.278007504972077e-01,-1.822355476439667e-01,-3.329681367426587e-01,4.883333254243199e+00,1.065939382411020e+03,1.054780362882981e+02,1.679390784862423e+00,-6.036774052474658e+01,-8.576957892403728e-01,-2.924531842798912e-01,3.742042782704348e-01,-6.019817019382036e-01,-1.674140331612438e-01,9.723979738244152e-01,4.568359463533013e-01,-5.967461752992321e-01,-4.696562957689503e-01,3.081391630014885e-01,-4.660876817774655e-01,6.373274578730019e-02,-1.810810160271953e+01,4.851983734253409e-01,6.627634664449590e-02,-4.482851923807067e-01,4.561331020961173e+01,8.015521085420809e-01,1.632282648205889e+00,-3.977816034125726e+01,-6.137886129531342e+00,1.011523514137910e-01,6.321734730238529e-02,1.346574892828477e-01,4.146732246214905e-01,-2.047138568365826e+01,-7.806214234749419e+02,-5.322557563324837e+02,-2.049469676982606e+00,-1.014309686770126e+00,-3.300736737924046e-01,-2.478167552076560e-01,-1.077958668559288e+01,-8.846504066095694e-01,5.679626007242727e-01,1.667567595571159e-01,3.651898193472712e+00,3.558258073707932e+01,7.701391476325572e-01,8.347856275932438e+01,-1.224634940336738e+00,-3.929116569183714e+01,-1.106278109794869e-01,-5.612104496759521e-01,2.785521050684837e-01,-8.817695318459782e+01,-1.113535939499166e+03,-7.476795939762751e+02,-1.868072275019365e+01,4.309081620911936e-02,-5.000544669615061e-01,4.761170220175482e-01,-1.696283983902528e-01,1.044141797928331e-01,-6.036101208942838e-01,1.054341947135455e+00,1.150834267562540e+02,6.873750937104224e+02,1.108655209256383e+00,-1.327905363673092e-01,-1.971608727510437e+01,-3.979677863377987e+01,6.335119326107220e-01,-8.310443638493613e-02,-2.379280143986169e-01,-2.574092510459697e+00,-8.792307226741692e+02,-9.925475739209139e+02,-2.331996584018691e+02,-9.987415953332991e-01,-6.409914811465372e+00,1.556945142053149e+00,8.502852991565881e-01,5.000804824100034e-01,7.820343298750687e-01,-4.716135825666937e+01,-9.020430616622772e-01,6.561056377842659e-01,2.182124439935774e+00,2.195541819949866e+01,1.274517845531043e+03,-2.762271583675208e+01,1.996716178076587e+01,8.479593080204616e+00,3.127733945180840e+00,1.374538536056548e+01,-2.254498995214285e+02,-2.690244130739833e+03,-3.343331157254142e-01,-4.821816325376306e-01,9.354823126037706e-02,1.223961848842841e-01,-1.098784106097058e-01,-4.437978573110447e+00,3.856082481409993e-01,-5.792653845644465e+02,-1.144694205469591e+03,1.299793633125021e+02,-1.314104621664697e+00,-2.736361230411911e+03,6.253491552107059e+02,1.196367613147497e+03,2.746727817892545e+01,5.386038765152202e+01,9.163231901835022e+02,1.332707646515695e+03,2.178727505188790e+03,-2.071282632997029e+03,-5.617683622611825e+01,8.802292059907035e+00,1.208435200533019e+00,-3.685493549205441e-01,5.774358912743375e-01,-3.826445816670569e+02,-1.138557932545135e+03,4.273076821614350e+01,5.080217832118976e+01,-4.701736402434404e+01,7.548300038038624e-02,4.337415070640775e+03,-4.393169529729365e+03,-4.302925335595615e+02,-3.372744667691456e+02,-1.799142542180000e+01,2.628477891520811e+02,3.231367259496601e+00,-2.798178456895842e+00,3.087975840311180e+03,9.779563578106605e+02,7.815333637199826e+00,-1.302559781192854e+01,5.131919688681096e-01,3.419082820618835e-01,2.198482901627806e+02,-2.129224399905003e+03,-2.029957905270308e+03,3.244295241116589e+03,4.376412907227848e-01},{6.856211904243138e-01,1.428913141599030e-01,-2.007281410715134e+03,1.256212170942646e+03,-9.757278241947133e+02,6.100291305103013e-01,9.406364190406318e+00,1.364215122226062e+02,1.096338652466817e+03,-2.339359962163520e+03,-3.883162559279629e+03,5.274279698735620e+00,-3.164215913761315e+01,6.094417502638061e+00,-8.440509002750147e+00,-1.909569809736540e+03,-1.535307909558927e+03,5.420334679628811e+02,2.925891365078562e+03,5.860980082265259e-01,4.412063923450341e+03,-1.003939643887259e+03,2.136450976418897e+03,-3.869655107590202e+03,-2.389175324972487e+03,-1.101130655231047e+03,1.307877962787606e-01,2.390466652800431e+00,-4.412257746036321e-01,-1.058412032056971e+01,-1.836932150689130e+03,-2.896849572825440e+01,-9.735985273833277e+00,-7.317737523390152e+02,1.456799609419036e+02,7.582672258427706e+00,-1.875141157475373e+03,-1.032761740488471e+03,-9.796456944459256e+02,2.871275523286799e+01,5.659334659583749e+01,2.854822918081819e+03,-2.107237260144871e+03,-5.221398590780607e+02,9.438487798163894e-01,3.698816572377356e+03,3.444740293008754e+03,6.877112495220351e+02,7.213181840713064e+02,2.009501518141068e+03,1.372590907502531e+00,-2.551073460274661e+01,4.067270662226976e+03,6.172131164288608e+02,1.383235191120589e+03,1.938534068956684e+03,3.288863223940416e+03,2.746430341855839e+03,-9.423371951255419e+02,-9.899978368511743e+02,-4.585259257565102e+03,-4.350527313707698e+03,-1.378638607494494e-01,4.411771374722935e+03,2.837522914914893e+03,3.936801466690446e+03,3.494836153121663e+03,1.278827066970149e+03,2.065293641334613e+00,-5.746313719263458e-02,1.822388779072805e+00,-2.255711849476071e-01,-4.329558879969018e+02,-6.321350697501407e-01,8.699058651358312e+02,1.065562712635207e+03,1.301216854070777e+03,1.103040917338295e+03,8.359238049723652e+02,7.221449837161709e-02,-5.368242991868079e+03,-1.176319618590187e+03,2.464724861081834e+03,3.703851774607060e+03,3.862388859568983e+03,2.433388642477619e+03,3.957600807364806e+02,5.895630247545611e+01,-4.373508062060742e-02,-5.822916802014008e+02,-8.736465197609613e+02,-6.823619830798664e+02,-1.289759414747586e+02,-1.085267587696655e+01,-1.628574643825561e+02,-3.880228713743509e+00,-6.661276400222312e+00,1.188093618222525e+03,3.976714924389089e+01,6.364252701153073e-01,2.810450203866657e+03,-1.114976046457969e+02,2.847743557950398e+03,2.933941694985760e+03,3.253834974837496e+03,1.298360274542852e+03,7.468539756248992e+00,3.667424903719241e-01,-1.387024002918864e+01,-5.168865866807123e+01,1.870611558693355e-01,-5.957527666005580e-01,-1.016388555797506e-01,-1.624148791362455e+01,-4.519995061909550e+01,-1.309287870424407e+02,-1.320981843666618e+01,6.269495570868696e+02,2.405405774355521e+03,7.296495169050482e+02,5.504627224913060e+00,6.903902206659757e+02,5.225359364462761e+03,4.690462154927337e+03,2.767098257602935e+03,2.328278369273175e+01,1.991117492027326e+00,2.157402976780730e-01,-4.363578245799471e+00,3.239372716120927e-01,1.772688381311284e-02,7.124988914818099e+02,1.368087783498377e+01,5.207288139160864e-02,-3.048996544574628e+01,-1.005372598581106e+00,-2.709547435121485e-01,1.168337940436826e+03,1.760418220038656e+03,3.502086382216126e+03,4.591648752729193e+00,1.250529763687762e+03,4.899092379785507e+03,3.932520376920939e+03,1.279954864393419e+03,6.031636268290461e+02,9.694871741676166e-01,1.598094277423218e-01,2.980826106630112e+00,-5.445748166652029e-01,3.288818477687731e+00,2.380930559808127e+00,2.133498148818550e-01,4.915687430022719e-01,2.210276944045415e-02,-4.949941609857025e-01,-1.647747061795200e+00,8.867596182773767e-02,1.471463450949313e+03,3.570557714445007e+03,-8.674252245873969e+02,3.222376498141826e+03,5.538905166323442e+03,9.728751451742830e+02,1.540932524132005e+03,3.024195425202877e+02,-8.446556657843277e-03,4.491090747797058e-01,-2.052727419716365e-01,-3.106512493210975e+00,5.245505229418476e-01,1.860410689180255e-01,4.418764641908085e-01,6.025709516022946e-01,1.909483714194151e+00,6.589732897290945e-01,-4.431620780027669e+01,5.047579392561423e-02,6.885975514077236e+02,2.650279939159248e+03,-2.003495250454294e+03,5.695457551174801e+03,4.844287900852427e+03,6.161422530553103e+01,9.338179228940748e-01,8.970581430750550e-01,-5.928815403889914e-01,-3.052154126648591e+02,-7.463103639107034e+00,-2.837905473331099e+02,-5.875178703719843e+02,-1.055849457968432e+02,-7.285173534304737e-02,5.992984177009769e-01,2.212168793850944e+01,6.107350182554232e-01,-5.102104476964661e+01,1.092313542918093e-01,2.131603793440846e+03,3.064398534179824e+03,-3.212045654817136e+03,3.557783926382276e+03,3.655515361701272e+03,-7.246936759294999e-02,-6.474655079683476e-01,-3.577096507810565e-01,1.676633004457510e+02,1.245799970164649e+02,-7.676714337163385e-01,-7.464463675931106e-01,-1.963781981506077e+00,6.969315669403321e-02,1.685693381075019e-01,3.248750833906803e+00,2.269925508148252e+01,-2.693971964856252e-01,-3.359668018314883e+00,1.215078141975609e-02,9.620326498413085e+00,4.385357345237725e+03,-1.266492879876583e+03,2.764640253326997e+03,3.794591456030145e+03,-8.239273312938170e-03,2.011707943282346e-01,4.177344502734431e-01,7.020706278185888e-01,6.018824303999158e-01,5.422951725764138e-01,-4.342862146630487e-01,3.452688908265619e-01,1.777418445865825e-01,7.204488095186758e-01,8.518542972433404e+01,7.206645306139089e+02,4.111614272845213e-02,-1.092011782480721e+01,-4.314478697812591e+01,1.028404808149164e+03,3.644219452365376e+03,-6.222232791724045e+03,2.940183380061701e+03,3.468144241630544e+03,9.338718219272057e-01,-9.110305212198526e+00,-1.146825294388444e-02,1.167664255034524e+00,3.664113860525115e+00,1.432594095048897e+01,8.925361458252874e-01,3.142168756871179e+03,2.139684279124557e+03,6.447635402503465e+02,2.728723611425670e+03,1.397678124484122e+03,-2.754448596252089e-01,-1.559550035223682e+01,-3.486468273599451e+02,1.012449518402299e+03,1.770595805737143e+03,-6.105737598509432e+03,3.324268148090990e+03,2.778731719338021e+03,-8.178974281277753e-01,-3.486686892001749e+02,-7.379638643349360e+02,-8.404488536488579e+00,8.381104457223967e-01,2.130969040644424e+00,1.784237709129953e+03,2.741596127972030e+03,9.454514640430913e+02,1.794355594374120e+03,1.372692780785790e+03,1.461484985552750e+02,-3.336001648773263e-01,-7.566926653187872e+01,-1.389510309114496e+02,8.504457228623029e-01,2.218104441105495e+03,-2.179553106083849e+03,3.988306711602962e+03,2.150003258237411e+03,-4.319396512876886e+02,-6.605178907004254e+02,-6.377516005432294e+02,-1.830721937816790e+00,2.349526200288354e-01,-3.065346696518201e-01,7.520787216034159e+01,2.398259184594770e+03,8.098405749323709e+01,2.050907655347055e+03,1.697621334006232e+03,3.107573778518746e+01,-2.616875127603011e-02,-2.087271245529088e+03,-7.180325167742562e+02,-3.259796655436813e+02,-1.441035339870257e-01,8.249559606855395e+02,4.715664134041212e+03,5.396939170612152e+01,-5.447040445201562e-01,-2.683510193551998e+01,-4.485669686434612e+02,-5.817064963895230e+02,-4.510764408160804e+00,-1.702808147781552e+00,6.013728623334303e-01,2.519611487053092e+01,1.588695333572459e+03,2.308133912086064e+03,1.185098069419027e+02,6.985023111799661e+01,-1.374081589242271e+01,-1.411243841560597e+03,-3.467498226119714e+01,4.132470170860165e+01,9.499796626686064e+02,1.046374041615101e+00,4.757213576462576e+03,6.329394849470754e-01,-1.028395122622793e+03,-1.806492070633479e+03,-8.292546914254858e+02,-6.890103466669972e+02,-7.013527043349042e+02,-1.267939325741114e+00,1.817916006388345e+00,5.133727856768237e+02,1.502425943351360e+03,3.010306226698566e+03,6.867077295876240e+00,1.598331407724938e+01,-1.021510587468347e+02,-2.203550179564547e+02,-1.793927053084677e+00,5.679367221338123e+02,3.258373328210021e+01,-1.030957970773938e+02,2.635544866264762e+01,-2.180308121180649e+03,-2.098972794872333e+03,-7.486298081824350e+02,-1.546625582671445e+03,-2.233630843291297e+03,-1.974043914223586e+03,6.010693972682611e+01,2.542267813654577e+02,1.007367637688698e+03,1.790726575016107e+00,1.917033497135301e+02,2.067536503200295e+02,8.821590699743048e+02,1.889620398974267e+03,2.825643137127437e+03,5.039850496800903e-02,3.497744709395333e+02,-2.006970269168626e+02,1.023330902463724e+03,-1.457280018284403e+03,4.221631088117102e+00,-9.436538174734656e+00,2.596678472491437e+00,-1.071254155109401e+00,-5.890105006095932e+02,-1.641188065921222e+03,-1.966092015233253e+03,9.876974346812586e+02,1.764066626783235e+03,5.959562300361855e+03,6.128929849079926e+03,5.515838053688510e+02,4.669532485335603e+02,1.003307195904201e+01,2.220189398111131e+02,1.566684214571415e+00,-1.098437020420966e+03,2.141793036137099e+03,2.730193357016190e-01,-1.886388984829336e+03,-1.131220122021209e+02,6.969579689826682e+00,1.916157264082882e+02,4.023228898013366e+01,-2.520999595883561e+02,5.416605951067941e+02,-1.794458596995283e+03,-1.410448130801156e+03,-1.270818175011778e+03,-4.150812244318918e+02,1.401931279411918e+02,3.925678572423446e+02,-2.284283278421273e+02,-2.560159078643530e+03,-6.972673879964208e+02,3.622644959781649e+03,-1.374928361692710e+03,6.480434801455622e-01},{5.034144954003029e-01,2.913797075824175e-01,3.759135025073374e+03,-2.251778368786557e+03,1.374020143245500e+03,1.571618547878025e+00,7.556241549317085e-02,1.281942744985199e+01,-3.513154004692229e+01,8.745828599707568e+01,1.499920663933185e+03,-3.518306252976031e+03,-3.148847113387497e+03,1.855043699896435e+03,5.465817127908451e-02,-1.525367360927553e+03,-1.851272453628370e+03,-1.102357164330452e+03,2.772375141246852e+03,5.356774959592985e-01,-2.300328062114363e+03,4.142147273235563e+03,-1.013292577095006e+03,-1.230705907824971e+03,-4.850209148809737e-01,-3.403612269743878e-01,4.081422788098081e-01,2.748916498439238e-01,-2.081637125946176e+01,-8.146091167892627e+01,2.139699101985008e-01,7.496257798414468e+00,3.403223438406488e+00,-5.325592147475790e+01,-8.384158891690755e-01,2.294530597435887e+00,1.937676799880152e+00,-2.522662940334648e+03,-7.579023715842511e+02,2.556534919748383e+03,-2.918913154809548e+01,-7.066744287780580e+02,2.278696559233805e+00,3.809823334366298e+00,1.645731030534904e+03,6.381117858418272e-01,5.602357642482444e-03,2.132148964105093e+02,-1.431942616507080e+02,4.340877901189206e+01,-4.111244870201827e+01,1.006508196338973e+03,1.088727377320052e+03,2.579374650215997e+03,2.098998514197042e+03,1.975054814314841e+03,2.288845626579613e+03,3.739379328773282e+03,1.710042773473500e+03,-1.790421389678215e+00,2.146060306117988e+03,-2.434895076970609e+03,-7.926691520333216e-01,2.066771475766790e+03,8.356857133929619e+02,9.545505943130883e-01,-7.904865132125624e-01,-1.817122222404648e-01,-3.417338831713749e-01,-1.503422028315142e+00,-1.935597596433213e+00,5.765498657145484e-01,-1.530867488156469e+00,5.201589605522702e+02,1.901913576969475e+03,1.503060166534491e+03,1.534984944865564e+03,1.837728483525208e+03,2.624296821226547e+01,-1.103282133904948e+03,1.251043007364435e+03,-9.081144370383914e+02,-6.858746594074063e-01,1.340681019226516e+03,1.169283474026226e+03,3.421716065294062e-01,3.734906829855318e+00,2.541279087628825e-01,-6.251348852090753e+00,-1.316555461575330e+00,-1.484578037499281e+00,3.653331658710501e-01,5.291012713676596e-02,-2.687909443117876e+00,1.061712108755121e+02,2.752545317044572e-01,1.710421222214753e+03,1.164777286656256e+03,2.579493147038154e-01,8.034969390898340e+00,7.137673278331291e-01,-1.615152601046974e+03,1.900293253694549e+01,2.935185630117999e+02,6.028622312718211e-01,-2.989761224853839e-02,-1.635553312374650e-01,-2.971233249939841e+02,-4.377351070700866e+00,-4.665687869043637e-01,-3.313141275178555e+00,-2.216904952597685e+01,-7.315331687145581e-01,-1.089220205181892e+00,1.273042488722170e-01,-1.091356514636771e+00,4.956142479244802e+02,9.468045516921327e+02,3.254907420372055e-01,4.058850142314427e+02,-2.068259687024934e+02,-6.892522144735397e+02,-1.024954070115447e+01,5.475813177205204e+02,6.788707991109772e+00,-1.821984247484000e-01,-4.113267211303065e+02,-1.921914864861967e+01,-3.936935809606128e+00,-2.708164334293081e+00,-1.641198306747175e+00,-8.824829499514136e+00,-1.659788857189778e+00,-5.091790180681532e+01,-6.400045083627928e-01,3.400687555427026e-01,-4.292274886626949e-01,8.947903131221268e-01,3.557822727166520e+01,5.839642593784147e+01,-6.438340296920892e+02,-4.172033119988331e-01,5.152700821692840e-01,7.670701584104089e+00,8.654818074970114e+00,-6.896701162544492e-01,-4.424733000006624e+00,-9.193209444100756e+02,-5.251157345411730e+01,-4.759459304087356e-01,-1.097327845399588e+01,-2.901873498014468e-01,-2.775426051586118e+00,-2.729197696488750e+02,7.995543160019833e-03,-1.762072386243186e-01,7.023164835881265e-01,3.352527767276986e-01,3.807204427643817e+02,2.379087471950600e+01,1.099175509617091e+00,-6.913285920903785e+00,6.335043890374419e+01,2.359027472348251e+01,2.422367074316206e+00,-2.624581400626416e+00,-2.075854113174853e-01,-1.224049547795795e+03,-9.686726847174273e+01,-1.871873396112460e-01,2.726960522061986e-01,-1.447806897348078e+00,-3.537940390291769e+02,-1.822654995265153e+02,-7.000999763200295e-01,-8.735617558199101e-01,-9.454032360043093e-01,8.654945724903854e-01,1.448099096669089e+01,6.643029166135705e+02,6.425386867277374e+00,-1.728772079660634e+01,3.305565372206252e+00,2.301070693757516e+02,9.006408215895725e+00,-1.121809385492563e-01,6.252456648088054e-01,-9.241990415682547e-01,-5.532696086561139e-01,1.163412229756625e-01,9.351773583129671e-01,8.900145121989896e-02,-1.393665972153147e+00,-1.401760709467355e+00,-4.824923151922011e-01,-2.367479281700887e-01,6.970739159637552e-01,3.391225257017333e+00,2.203622587645339e+01,1.692977387253886e+02,-6.207823177083578e+01,-6.595387386354772e-01,2.631425973421780e+00,3.265215847930604e+00,2.529713062643990e+00,2.353180087841386e+02,3.355288238994535e+01,2.798134989289551e+00,9.020338094929753e+02,1.043795934028200e+03,9.653943906081608e+01,-1.313791129960373e+00,1.902508721116020e-01,-1.747762307171767e+00,-1.371477210186134e-01,-3.056795045704813e-01,-5.086489501588261e-01,1.178260743406531e+00,7.081009890800621e+00,3.237382953239934e+01,3.614174637287666e+00,-1.828793962995200e+00,-3.780704332737993e-01,-1.990763877479349e-01,-1.396215478149930e+00,7.784608457059856e-01,-3.954733488169079e-01,1.936169603760776e-01,7.211075633220861e+01,2.637939489310403e+01,-1.413453492327689e+00,-1.198858121545234e+00,-1.494385271801350e+00,-6.550712926420355e-01,-1.313001952603879e+00,-1.073581851497722e+00,1.047579914723253e-01,6.108331184343977e+01,-9.456718927640179e-02,3.485011655169352e+01,9.052860821215206e+01,3.442013408247034e+01,5.423182421069565e+00,-1.016801930306872e+00,1.647740519498782e-01,-1.627317168635779e+00,-8.037979308843161e-01,5.629596961993136e-01,1.158986646487945e+02,5.898578038655484e+01,1.021631751427389e+01,-5.129608985887320e-01,-1.589338049353251e-01,-2.406312097763457e-01,-5.101623755405418e-01,2.077619796778757e-02,-2.657823202553157e-01,-1.576879001866599e+00,3.277950441604554e+02,-4.883207888336301e+02,3.751326766711210e+02,1.870682079152306e+00,-1.224248376160262e+02,-6.678469098984022e+00,-4.429303362489759e+00,-1.127893585138679e+00,1.208579458675063e-01,4.808763362213626e-01,5.468625228541383e+00,-5.689119204754203e-01,-3.974265708149666e-01,1.525680919315853e+00,6.236077747149864e-02,-2.337641628509123e+00,-4.464008724372029e-01,1.524213196260073e-01,2.197368475063450e-02,-5.737507067704878e-02,7.320361695224224e+02,8.311081400913386e+01,-3.402876862462524e+02,1.326222024565388e+03,-6.273428284631433e+02,-2.054360840695648e+00,-2.900092628065669e-01,2.152607960659774e-01,-2.387374790714515e-01,2.267760043627287e+00,-6.992402193609517e-01,-1.099083910401262e+00,7.615349005165585e-01,-1.285867768919190e+00,-1.700159358169614e+00,-1.144320939448181e+00,1.084247012136516e+00,1.579807658144732e+00,8.309696958402272e-01,-2.823528437185782e+01,1.391375984500456e+03,1.485328550879193e+03,-1.160181774810742e+02,1.017790974143429e+00,-8.763972177105250e-01,-1.567542575216719e+00,-8.975987517115539e+02,-1.931644737594605e+00,-3.136181943472307e+00,8.302760901049135e+01,-1.699169365228235e+02,-2.839296042411176e+02,7.964761731327693e-01,-1.933477628741957e+00,-1.512894282690352e+00,-4.183538168171039e-01,-3.585851772643718e-01,-3.707404777325391e-01,1.041189344440419e+00,-2.864690544109207e+01,1.422034666214681e+03,-1.688761166193255e+03,5.187299612846266e-01,1.979757432352653e+01,-7.017313405246183e+02,-3.272933701501085e+00,-3.211582182886033e+03,-3.543855372424093e+01,-8.036395770738059e+02,-5.378958572864459e+02,-3.378467606495323e+02,-2.090552587454662e+02,-1.898930702247187e+01,-1.259670548870535e+00,-9.874967574102123e-01,-1.231292580156209e+00,-4.588004611839226e+01,-8.395211863084935e-01,-4.215754376001925e+02,8.182552998004411e-01,6.910592895936232e+02,-1.419880651149463e+01,-1.004957664340877e+03,2.071811859401118e+03,-6.115285795622293e+02,-2.497557813478200e+01,-4.565528344743260e+03,-3.298991074866328e+03,-4.022629775279484e+03,-1.378791891533397e+03,1.159474537268153e+03,-3.696835889846866e+02,-4.604663355585750e+02,-2.154316257179699e+00,3.381294627676596e-01,-1.885618239815264e+00,-1.192609340698285e+01,6.102101813247338e+01,7.063341218344932e+01,3.769812340145546e+02,4.706411169964644e+00,-1.157263434146234e+03,1.215374151574052e+03,2.130778013902474e+03,-5.580619140965650e+02,-1.336102443754680e+03,-1.764414651791844e+03,-2.605197289638595e+03,-2.456957616539888e+03,-1.734222135577327e+03,-7.797627272874545e+02,-1.028905205921377e-01,-8.907353585905691e+02,7.058554056835651e+01,-4.500376594939985e+01,3.015710673464950e-01,8.926492795681710e-01,2.684192472704141e+02,8.871955169294864e+00,-9.479391456003949e+00,-9.525327823774016e+02,1.641740545138719e+00,1.312194217637841e-03,-2.752170596949793e+03,1.585339519903281e+01,2.086065956446454e+03,2.848495422514442e+01,1.948577474267316e+02,-8.181814398650001e+02,-1.460258129697836e+03,-6.867638152458151e+02,1.672284874742143e+02,3.365048886558740e+03,1.422673012276566e+03,-4.380822990151567e+02,-1.224370169885687e+02,-5.831599961959307e+02,-1.238563157270543e+03,8.374886454199815e+01,3.986168446410201e+03,-9.584258378825670e+02,9.405219791634664e-01},{9.105991821694781e-01,8.285969899600060e-01,-2.924401855250475e+03,6.889773387905121e+02,-1.737581659921884e+03,1.435894671603200e+03,-4.617925462722856e+02,5.121104529325123e+02,1.728538905222945e+03,-2.896151025120600e+03,-3.509617826116478e+03,3.875325997596296e+03,2.136858100772562e+03,-6.047133276160884e+01,-5.475143021576655e+00,-9.198698686897477e-01,7.169498867489240e+02,2.108420430673984e+03,-2.235964540925308e+03,1.943569843898227e-01,7.063349366763980e+02,-1.388640994567417e+03,1.072445914707974e+03,2.168529139638951e+03,-1.908133066928719e+03,-2.700391074779507e+03,-1.223522548269415e+02,4.038959231576210e+03,3.583007218500108e+03,-1.253779818110058e+03,-1.501293124849132e+03,6.409356453213657e-01,9.331835341343312e-01,1.555309844725867e+01,-1.002630986061049e+01,-2.824117106954765e+01,-4.303088308186690e+00,-1.424479656519902e+02,1.110078005377414e+03,-3.864379874192279e+03,7.311801142064086e+02,-1.376911869663919e+00,4.085038584588621e-01,-8.905129278404766e-01,3.304013475925007e+00,2.405036525855857e+01,-4.956414157136579e-01,3.147076008369960e+03,4.306762754053998e+03,2.458882231471666e+01,-2.590730418267083e+03,-1.572640387025852e+03,1.686821500291620e-01,-1.760017930379560e+01,-5.852447184892572e+01,-8.569326761307317e-02,-2.524664133175941e+00,-1.534613746042448e+03,-4.042615217603196e+03,5.454770047822244e+02,-1.706190104224803e+03,6.701873768987839e+02,-1.847889719001154e+00,6.641525155300704e+01,-8.145285750185985e+01,-1.624458227691119e+02,-2.818585199032233e+02,1.819012320567648e+01,-7.248177935519307e+02,1.477822945548927e+03,2.018048548541638e+03,-7.502854523807734e+00,-2.890125893807088e-01,-3.579352194195896e-03,2.778630763183064e-01,-8.259573584218207e-01,8.614073919149812e-01,1.272546896624089e+03,3.203827122672293e+03,3.896290536271188e+03,-2.992854716634845e+03,5.316498000528721e+01,9.079464418855179e-01,-3.079585723538176e+01,-1.058508034763599e+02,-2.255093290962100e-01,-1.106534080442758e+01,-1.516915278365115e+03,-3.279594945281681e+02,2.161856408466102e+03,6.316467468776171e+02,1.805712672499526e+03,6.164936917289867e+01,-5.807644390468613e-01,-5.554603565617356e-01,-1.433531291464454e+00,-9.052320487073658e+00,2.083394387308563e-01,2.932482476591125e+03,7.204639631631250e+01,-9.178235089160239e+01,2.290335140755569e+03,-1.948521147949754e+02,-2.597689142991887e+01,-6.079680503036212e+01,-1.244865399637135e+03,-2.597871857407166e+02,-2.816096177614162e+00,2.188642043694631e+02,2.335964086392244e+03,8.052297451275863e+02,3.333707107647435e-01,7.823820734164975e-01,-8.951367793836547e-01,-1.868402954943869e-01,-7.537083106877901e-01,6.237333052820121e-01,8.946998683878347e-01,4.580372029806229e+03,2.393342360514002e+03,1.903039974474143e+03,-3.791092573158394e+00,-2.265236117227549e+02,-2.904157829585436e+02,-5.500621066683734e+02,-1.181203845006541e+03,-6.798625800953086e+00,4.090052109366741e+01,1.654630429133446e+03,2.164285873420401e+03,1.837726140860174e+00,4.258832878275301e-01,-1.552128721522363e-01,-8.018227860573235e+00,-1.823752639306814e+00,-2.788623643609737e-01,-1.208172272016951e+00,2.865565242037374e+00,2.359962589908821e+03,-5.499891254758462e+02,6.343217927258445e+00,6.948052489557709e-01,-9.996409546423980e-02,-3.966977443072228e+00,-1.582926595613207e+02,-2.331356668242027e+00,4.212498669631953e+00,1.384911313774104e+01,4.571378847889487e+02,1.418698838108757e+03,-4.951100367166302e-01,-9.900998452226588e-01,-1.090164150667265e+03,-5.141021623719550e+00,-1.434606459038219e+00,-3.629320450583649e+00,-3.868505823410116e+01,1.951357443789276e+02,3.725816635266398e+03,4.401396842572459e-02,-4.968819962327772e+02,6.706519997963384e+02,1.450654304394227e-01,-6.515847573665014e+02,-1.051284490009280e+03,2.156179673733263e-02,1.433551320622760e+03,1.198110769635014e+03,1.067587824740002e+02,-1.678364160907505e+01,-6.563444981253878e+02,-2.150427518810989e+03,-1.855926110607727e+03,-6.817828551921820e-01,2.100781601344743e-02,1.509217915273095e+00,-6.422580999547490e+02,-4.710524655188695e+00,3.325528674708207e+03,-7.210756613544903e+02,1.266366088120282e+00,1.785862965135218e+03,2.209374731815697e-01,-6.719244291248822e+02,-1.229499426419425e+02,5.990890391313194e+00,1.509251259150808e+03,5.415530944943159e+02,-3.508062812550576e+02,-1.710670657225683e+03,-1.820761889517726e+03,-2.272261000022128e+03,-6.916668143190991e+02,2.948421250378009e+01,1.476205628434678e+02,2.132722195164048e+00,-1.366902428445047e+03,-1.054794170152288e+00,3.041848319203003e+03,4.024040124494113e+02,-3.099298023074928e+03,1.086859852090632e+03,-9.979393837911537e-01,-5.292911160867181e+02,-2.030341532635858e+01,8.285770787092204e+02,1.366250428324202e+03,2.304519043653762e+00,-1.520656012161081e+03,-8.982818582233651e+02,-2.121345324502686e+03,-1.316908192149115e+03,-1.531119823431979e+00,1.671992167540184e-01,8.535979623142448e+01,1.514888223107260e+01,-1.027675737297987e+03,-1.062520238941884e-01,1.584039817270229e+03,7.281860588592824e+02,-2.188573725804697e+03,1.568347442837094e+03,4.156882263775651e+02,-3.539681908952596e+00,-1.289806802119676e+00,1.575850509963241e+03,6.880169933460484e+02,-6.502194508165741e-04,-5.336566197005260e+01,-3.326651925178708e+02,-1.657875842043069e+03,-9.779091364823357e+02,-3.491581141374764e-01,8.931965546278712e-01,4.247834937795827e+02,1.586794134142109e-01,-1.304492074709746e+03,-6.785665831214942e+02,3.173394040231656e+03,4.469491382703245e+03,-1.223994964491754e+03,9.377316581632172e+00,4.005591146737257e+02,-5.440562504213838e-01,-1.559913195289128e+01,6.958770400068780e+00,7.823473571671957e+01,2.693753578393666e-01,-9.115237726626906e+02,-2.843813845740025e+01,4.202013209228641e-01,7.397224834546887e-01,-2.774286766232587e-01,7.961987458103096e+02,9.336520672465786e+00,-3.696416529217640e+01,-4.563277033710972e+02,-6.244417562600921e+00,3.696289982582557e+03,5.077423729953735e+03,-5.147324127649501e+02,-6.383701202129618e+01,1.338718647601830e+03,2.068568150756970e-01,-6.983893277401209e-01,-2.337417021338973e-01,-1.973081889256627e+01,-1.304587767656917e+01,-7.103852841977891e+01,4.217623484905040e-01,1.218711048220216e+00,1.001300422300095e+03,9.160657727334896e+02,4.626559544255047e+01,-2.001588022457593e+00,-5.710776832804022e-01,-2.415639187986545e+01,-1.580164519525982e+03,2.684831704850816e+00,1.546202215549473e+03,1.152927261196585e+01,9.100667167526220e+02,1.878783108004605e+03,-1.759196982693706e-01,-3.035691646662898e+00,-1.151860502843129e-01,-2.875243458900709e+00,-3.270369403850236e+00,-7.365489812510825e-01,-1.244675915921871e+00,3.877003912137589e+01,1.216994053543450e+03,4.113394384391144e+02,-5.841610693483886e-02,-1.837891242982975e+01,-6.714213671675386e+02,-1.350581943030194e+03,-1.472262768346320e+03,7.572630000568461e+01,-9.098295615343314e+00,7.456227128330512e+02,-3.605060766339653e+00,4.517175237127237e+00,-9.385325395718980e-01,-3.634737258652517e-01,-8.549417521607646e-01,-6.929147405594589e-01,-2.128624606006469e+01,-2.897161562046842e-01,8.655750743019806e-01,2.326236532999297e+03,1.056845894250342e+02,5.390141423389011e+00,-5.076708564121724e-02,-7.254661272534523e+02,-1.715947711791096e+02,-2.346068086326926e+03,-8.446938473227458e+00,5.938078551464451e+01,3.011306312386957e+03,-2.311460955976922e+00,-6.004362030558064e+00,7.179965298183744e+00,1.748844983547629e+00,-1.745551896619876e+02,-2.064263550901745e-01,-9.380928279153320e+00,-3.178735417142398e+01,8.223077642645438e-02,8.345075158630367e+02,1.521180068427169e+03,8.206487517784598e+02,5.034955204310546e-01,1.585701666831981e+01,-1.061115985867430e+03,-1.317724494354461e+03,-2.087703377597850e+03,-1.169435343952957e+03,7.914262228526802e+01,7.629577415702715e+02,-2.408771122074178e+00,1.176694682082681e+02,-1.220002859804854e+00,6.410032090998798e+00,3.747749901222964e+01,7.942294296111286e+00,8.553217608043471e-01,-3.686340367287999e+02,-6.769730984106874e-01,9.131303857478971e+02,1.520686434612142e+03,2.471465646550349e+01,-1.073324179448987e+00,-3.517332334541559e+00,3.098138480257594e+00,-1.178950307823989e+00,-9.479295715964020e+01,-6.396052816737065e+02,2.398278405782056e-01,-2.545277849492779e+03,3.648531492640954e+01,-1.588210713926700e+03,1.770039335137926e+00,6.382283234273838e+00,6.548588423357905e-01,-4.492834373307685e-01,1.480269918785888e+03,3.705171277775981e+02,-8.275492457861426e+02,1.562001709005567e+03,9.246478470941219e+02,3.802993018086223e-01,2.018120883108863e+02,-1.058731900870888e+03,1.227299626868236e-01,8.221175972709108e-01,-1.315483982787321e+03,-2.448964356929349e+01,-8.018480011887782e+02,-1.081634101782861e+02,9.466930243900912e-01,3.257266533392554e+03,9.963200869967132e-01,-1.309883257160392e+03,-1.791963934176783e+02,-6.209414341560700e+02,-2.509215683912489e+03,2.220168833998474e+03,-6.679019027518227e-02,-2.377398103590204e+03,-3.586842147470325e+03,-1.745160170821866e+03,-6.362137019270069e-02,7.813289465205214e+00,1.457373818758262e+00,6.824976109885205e+01,-2.197312497400198e+03,-5.296982856190256e+03,2.488553658230450e+03,8.531307406376391e-01},{3.943884517223761e-02,5.131065469958743e-01,6.391291936681926e+03,-3.699765248456747e+03,1.157391277842846e+03,1.018890343028767e+03,2.389232208857592e+02,-1.547030278891674e+02,-1.284461131306843e+00,2.133516565533628e+03,2.272168953750353e+03,-3.897933431027573e+03,1.485352120886622e+01,7.033608207441405e+00,-5.041336312883121e+00,1.345844001284022e+02,-1.394159279181821e+01,5.950277390473593e+00,2.254536757698762e+03,7.888739102085830e-01,1.734098310039734e+03,6.618323916578147e+02,-3.364279920301513e+03,1.032525583052271e+01,-8.467553861949546e+01,-1.262982654207933e+03,1.878416953894481e+01,5.290325507707843e-01,1.028044714209976e-01,7.105538821421983e+01,3.179730484417883e+01,-5.115148542201765e-01,-4.266674881481043e+01,2.860737821346743e+00,3.811070914258462e+00,4.628799718479522e-01,1.452265374643618e+00,8.197238338921142e-01,7.797363446629345e+02,5.148507059348532e+03,-6.748237595326666e+02,-6.092562404024239e+00,-1.536792692575689e+01,6.229005194648902e+00,1.878637727055312e-01,-2.552488853701535e+01,-1.633855944168166e+00,9.158313744927069e-02,5.139912304225017e+00,9.193464051049924e-01,3.459753016485745e-01,-8.296922707610106e+00,-3.463248173428403e-01,3.370203355133415e-01,1.416235273699719e+00,8.548291896111476e-02,9.361585505233270e+00,1.179679600809203e+01,2.497379671988018e+02,-2.923852112696398e+03,-2.736995831168045e+02,-3.162424887415585e+02,3.839098561682803e+00,-2.644616637491154e+00,1.880581073242042e+00,-2.203811777773591e+00,2.635189644533275e-01,-4.626363034639792e-01,-1.844209172455106e+00,6.120502739117446e-01,1.414485594299344e+00,5.802140086757784e-01,4.883463956176103e-01,-1.042448460634281e+00,-1.076171325186172e+00,-1.518007889599960e-01,-1.331076098946011e+00,-4.010586094050534e-01,-3.875839590554332e+01,-8.054324653183374e+02,-4.570007038637776e+02,-1.567329094037738e+02,1.777792295607540e+00,-3.542105400336929e+00,3.448383943921491e-01,-2.338927624396912e-01,-5.376878162760466e-02,-3.418904986618552e-01,1.561148315278282e-01,1.686128072229371e-02,8.255749613076867e-01,5.832594763954658e-01,-3.044220380100446e-01,-1.993382968274176e-01,-5.766599612668921e-01,7.606549865694916e-01,-2.705763417239069e-01,2.487010370768287e-01,-7.856031526559062e+00,-1.373099031651855e+00,-4.125706789921942e-01,-2.339950015768291e+01,1.718142129855542e+00,6.751258379656701e-01,5.229691187003724e-01,8.220680577255828e-01,-2.797867091959356e-01,-7.457472218752021e-01,-8.998558223530584e-01,3.972819462904803e-01,4.780723877899942e-01,5.817842431586517e-01,5.551906870570154e-01,-2.552734061124631e-01,-7.695624197558751e-01,1.708808868600004e-01,1.937063797862367e-01,-9.984698360928559e-02,-3.070860867464915e+00,-4.086033511590750e+00,-1.942371858863505e+02,9.714148186408071e-01,-4.157533562862440e+00,-2.706121502532581e-01,-1.399606817888014e-01,1.029486342888151e-01,3.572327871662206e-01,8.120625853847063e-01,4.298961611743804e-02,3.581074396314932e-01,6.861962673197854e-01,6.132459113542847e-01,-3.294095821970399e-01,-1.001561059398621e+00,-1.098264899524853e-01,4.591706816217627e-01,4.142255435864059e-01,-5.664031764277108e-01,-6.625734139851928e-02,-5.655008846669999e+00,-1.212468259134001e+01,3.180652600573379e-01,-1.232458859008127e+00,-2.124006904696910e-01,-1.902345172120178e-01,-6.445980031734316e-01,-1.445065972972067e+00,-6.171604668492332e-01,-8.972494257196993e-02,5.724336634135678e-01,4.549344914674206e-01,-3.223975048694260e-01,-5.830571521428345e-01,-2.413830312995845e-01,-7.181035773436026e-01,-1.631991954873284e-01,8.831166264940588e-01,-2.317099363230005e-01,-8.939273089757155e-01,1.214605664133110e+00,-1.294961302122054e+01,-4.019147876655795e+00,8.639908901357143e-01,-1.135933943901593e+00,2.849438789605306e-01,7.659293578819532e-01,-1.197979409093465e-02,2.133905252737573e-01,-1.421566814460729e-01,3.962944798992478e-02,3.671525804828729e-01,2.388019070873403e-02,4.525413904645213e-02,-5.620987174753280e-01,-2.216452288728507e-01,-1.505597535047334e-01,5.962167525127591e-01,-4.601449445724686e-02,-3.442331322383050e+00,2.472722199433997e+00,5.611615677599825e-01,-3.619878542127584e-01,6.430324399594601e-01,-1.731499558570181e-01,-2.114737031917520e+00,-6.255130538132734e-01,-8.687139583917266e-01,-3.855231919081393e-01,6.153255790256305e-01,9.909236110339795e-01,2.571839294707350e-01,1.521708606998958e-01,7.231261654055574e-01,4.188046552926459e-01,-1.690618407898803e-01,5.187541535122876e-02,-1.966235094867251e-01,2.199316546014001e-01,-7.641916109231807e-01,1.907517130350998e+00,-7.874715147535353e+00,-3.852535923974984e+00,-3.439870693980214e-01,6.972810859627813e-02,1.569550956412688e-01,-1.718967545115791e+00,4.049715212596061e-01,6.746740099281227e-01,9.934567065320386e-02,-4.322391222720038e-01,2.259555601179443e-01,6.313150340580075e-01,5.770408142704384e-01,6.024968699925921e-01,-1.438195438596381e-01,7.944181346621122e-02,3.881369332553377e-01,-2.430310433261902e-01,-1.903704225216269e+00,-3.767785606229088e+00,-5.941385538913253e+00,4.572296441880744e-01,2.600405218141212e-01,-6.346940391316547e-01,-1.069338851506638e+00,-8.405112817645072e-01,-2.881963673080715e-01,7.771311092521341e-01,-2.041403448429014e-01,1.264638051653070e-01,-1.641141817379693e-01,8.439063769459962e-01,-3.928540564436442e-01,-2.331529891467306e-01,-3.080975868945317e-01,7.152193910835490e-01,-1.241787476427245e-01,-6.101683515306819e-01,-1.391463907276372e+00,-3.248400369024096e-02,-7.612444876482108e+00,-3.039059461261603e+00,-7.313393134617600e-02,1.607076472334605e-01,-9.276503655056575e-01,1.525870955228763e-01,-5.251975377162934e-01,6.607218027665088e-01,-6.415324758366490e-01,7.321963640573164e-01,-7.003934719311162e-01,2.492979771169263e-01,1.827693876986115e-01,2.470351007078034e-02,2.291930384792764e-01,-3.569773074261905e-01,1.224643720836194e+00,1.598726383587110e-01,-3.691862944027109e+00,-2.047555187874878e+01,2.922978469668039e+00,3.977232633594148e+00,2.020649181049257e-02,-8.875720922079176e-02,-1.039267056156465e-02,-1.466832693147462e-02,-5.878185010432168e-01,2.946415918797360e-01,-1.051312707851192e+00,-7.944452080390560e-02,5.665497880074111e-01,6.234985879793956e-01,3.011734270650773e-01,-2.972579827821080e-02,-8.108540131532423e-01,-6.919398669293339e-02,-4.568016683455190e-01,-6.418827495564199e-01,-9.437097733226441e+00,-6.572906784209090e+01,2.827873143771912e+00,-8.945048844359322e+00,-7.163660515453504e-01,-2.808591136142823e-01,6.009734249300466e-02,-8.189757098699307e-01,3.425771222735198e-01,-1.151658833256161e-02,-1.211710680768126e+00,2.071396807142102e-01,4.245462486810533e-01,-1.576024611833326e-01,-2.655637435134671e-02,3.221060556415878e-01,-7.363420374068921e-02,-7.236577229796830e-01,5.407273646334461e-02,5.293512128987091e-01,-5.164987737482119e+01,-5.488145253342477e+02,-3.371612717296797e-02,1.561412333633499e+00,-3.759954204581850e-01,5.248149409604533e-01,1.068063584836454e+00,-6.385416868100714e-01,4.997074305001459e-01,-8.697832672591576e-01,-1.906647920490574e+00,-4.282610657220726e-01,4.448942682155477e-01,3.454254914693575e-01,-4.460659107984506e-01,-2.534277566785744e-01,-1.422071046226751e-01,5.822595232373160e-01,-9.461791089350106e-01,-9.321680944711243e-01,-3.743064547755858e+01,-3.589938676696036e+00,-2.466889337589778e+00,-2.152323366261272e+01,4.290333307233618e+00,8.682543059035027e-01,-6.875971847435196e-02,3.530522935439126e-01,-7.767179596789059e-02,3.788801852990379e-01,5.613011672890721e-01,-1.105169589091888e+00,2.349356959331030e-01,7.950175243382160e-01,6.748630790555424e-02,-1.318688755617017e+00,-4.343569928205882e-01,-2.223941639886103e-01,-2.596890124831078e-01,4.094457485336041e+00,7.589935236746737e+00,-3.869564181837667e+00,-5.452595267733579e+01,1.759428362288350e-01,8.044702581717170e+00,-6.342465930873967e-02,3.161726862954339e+00,-5.835580122095414e-01,-2.044966140795661e-01,-1.790667088635229e+00,-3.459689254005539e+00,1.964393744748361e+00,-2.242684532968438e+00,-3.581305748643022e-01,2.409553329896321e-01,-7.758973389851217e-01,-2.065273987614925e-01,-1.367033765590417e+00,5.078600942950084e+00,-6.211836710160730e+00,-2.593096789106954e+01,-4.237706998646996e+01,1.051430673171293e+00,-4.678258266790311e+02,1.270715833676186e+01,-1.300144233597850e+00,-1.039536301484040e+00,1.763746328570015e+00,5.430774490153775e+00,9.309750765195064e+00,-2.756903179514446e+00,-1.932848484384823e+00,5.375256247786417e+00,1.266952917561097e+00,-4.322638326609098e-01,-1.263543216064539e+01,6.188918346759211e-01,4.111513998065361e-01,1.136982965492222e+00,9.973662999547858e-01,-2.556719117729341e-01,2.953947845980633e+01,1.529018915752762e-01,-1.036472664650302e+02,2.295709027285311e+00,1.245738477467372e+01,2.329977849450360e+00,-1.385599372674299e+01,1.042710215151819e+00,-1.870264234444429e+00,-3.564460767699326e+00,-2.808332144916915e+01,-1.511891623686937e+01,4.348002425759211e+00,-9.349881795276627e+00,5.116610177586328e+01,5.244953134292738e+00,-5.907704817444522e-02,-2.422818862181394e+01,-7.854293114972751e+02,2.150322358909345e+03,6.680495246309848e-01},{5.227064010184866e-01,4.608221142313255e-01,1.321596010157039e+02,7.099101896405788e-01,-2.031192701739633e+01,-4.617177074210112e-01,2.302507947919282e+02,1.043291381458567e+02,1.259800278330175e+03,-1.737686262994722e+03,-5.599663978517970e+03,3.030905312938343e+03,1.910086770516308e+03,3.153666142668865e+02,1.851675409759137e+01,1.651065739028221e+03,3.772464192968179e+02,9.322561298833775e+02,-3.690869769130193e+03,8.474986242355325e-01,-4.208814414371847e+03,7.156264800743276e+02,1.216227858663239e+00,2.419982152802566e+03,-3.167301334404929e+03,-2.363237175178544e+03,6.827107057738846e+01,5.795174722027157e+03,3.471230516989893e+03,-7.223050040672186e+00,-2.900341609115136e+03,-2.634410705897369e+03,-1.665087431771260e+03,-9.374346842689471e+01,-3.153664019763182e+02,1.032018602727739e+00,-1.238522974591666e+03,2.207816585239082e+03,-2.187100999631753e+03,-4.286111910339742e+03,8.653757056262161e+02,-4.771497755966097e+03,1.798554994410690e+03,-1.129559080086821e+02,-3.140743587013811e-01,1.067780524629088e+00,-4.304977237644809e+02,1.004095909428646e+02,1.378759419331562e+03,1.135569690260597e+02,-1.654587916221375e+03,-2.090147020538816e+02,-8.565570829877618e+02,-3.174826668178004e+00,-9.427032164690901e+01,-1.519568618551342e+03,-3.989340200012891e+02,-3.168820166213460e+03,-4.040462008589047e+03,3.956781351132835e+03,4.081002113060916e+03,-4.011516415851243e+02,4.950041272841140e+02,-2.706520663515610e+03,-3.076587620833797e+01,-2.517260390645893e+03,-5.823252688428769e+02,3.428374266606723e-02,1.224030773780022e+02,9.049270185581382e+01,6.299802082859273e+02,-1.119886471914003e+01,-8.616400947697610e+01,-1.387492194785288e+02,-1.292406745680874e+02,-2.172151200533956e+00,6.394742804826262e+01,-4.151668981658111e+02,5.369223222123397e+03,4.137144772222360e+03,4.670485042227722e+03,8.049084817061377e+01,-1.330743400126468e+03,-3.179466846490989e+03,-1.332548855904417e+03,-4.989194576010148e+02,2.326239752489219e-03,9.517103291305069e+00,3.757830066028739e+01,2.797572864886944e+01,1.613393710126735e+02,6.574690869683656e+02,3.035173865656606e-01,-7.114648239998229e-01,-5.975191235164748e-01,-1.767470241514237e+00,8.634944284448091e-01,9.016781605142260e+00,2.884196595549934e+03,7.346383798820046e-01,-3.262986943277438e+03,1.514912610741517e+02,5.537111772787543e+01,-5.703862618966007e+00,-1.575125781898878e+02,9.853493172393023e-02,7.697136641145062e+01,7.879297261699304e+02,2.265165078962012e+03,2.025944415851402e+03,4.370390687300574e-01,2.271916501492989e-01,-4.766993473966446e-01,3.976777369714428e+01,-1.736334498412448e-01,-6.417285053193059e-01,1.161278596423255e+00,3.509530799851338e+02,1.158612463109238e+03,-7.708119971546060e+02,-7.368638111477351e+02,-2.038168267144765e+03,-1.116515267959165e+03,-2.624801182604941e+03,-1.078002544615008e+03,-1.883583740053274e-02,4.970956631630628e+02,5.828445782873544e+02,1.536220653446906e+03,-1.087804553145703e-02,-4.471120946089955e-01,-2.140958756924186e+02,2.826493831324940e-02,1.254665709252023e-01,-6.882762736022897e-01,-2.802518199223231e-01,1.483834315658930e+01,1.441496555223949e+02,8.922324218155763e-01,-3.506761422125210e+02,1.024830871981846e+00,-2.292182386877426e+03,-4.008241589194696e+03,-3.582277448708258e+03,-2.270161168861062e+00,-7.147471412274654e-01,2.692239713013942e+00,1.417636948664566e+03,3.948680467705363e+02,-6.747745003343362e-01,-1.081756454124785e+03,-3.125426294318811e+02,-7.727799008152793e-02,-2.460889512553156e-01,5.833103486104855e-01,4.861365264840194e-01,8.487124069233256e+02,9.690487062925374e+02,-4.074782647214467e+00,-7.607659075537828e+01,4.491997661965041e+01,-2.713828357218331e+01,-2.856269582982097e+03,-7.369218317022585e+02,-1.311823874732638e+01,5.049242954189200e-01,1.216191700684630e+03,2.148135229196898e+03,1.354638046687884e+00,-2.539000625174693e-01,-3.298285409362732e-01,-1.711721762234074e-01,-1.880562935198254e-01,-2.974011762893593e-01,-1.065956750150973e+02,-5.539431583571251e+00,1.776046549644044e+03,6.853251154333734e+02,-2.710248533697013e+01,-4.612120032634933e+02,1.069250441466938e+03,-1.269089380746313e+03,-2.244419883409676e+03,-1.064791564118368e+01,-7.723473095904371e-01,-2.023815697333607e-01,1.264383455865105e+03,3.751970172704657e+00,1.768625822944125e+00,4.667479580332943e-01,6.512350985898481e-01,-1.662294366270629e-01,2.364071805747797e-01,3.415601974305819e-03,-7.122284175748278e-01,-3.112758282436833e+00,1.148237220963227e+03,9.508497306550423e+02,-2.092472289458450e+00,5.664802862974945e-02,2.301202280357345e+03,-2.160807345380222e+03,-3.023192766213641e+03,-9.462590992349192e-01,2.363861777957300e-02,9.838095067310163e-01,1.559382525094291e+02,1.825365168375432e-01,4.108681039795018e+00,6.448153811685813e-01,3.560344254484311e-01,2.318212985098149e+00,6.932849029545184e-01,-2.550175182040685e-01,-3.308724466914841e+00,-4.979477258228089e-03,2.770174033057943e+02,2.935653296245002e+03,1.240078102174281e+03,-7.496547129863440e+02,2.396616906764158e+03,-4.496811842019393e+02,-2.483204117565440e+03,-2.476272807536373e+00,-7.889900009095898e-01,2.392400036525914e-01,1.927741595747743e+01,3.883719993935026e+02,2.416850891154779e+01,2.691529550310401e-01,1.775395920635736e-01,1.117872467273510e+01,-6.589247764251857e-01,-9.638112816439329e-01,-2.570911390177850e+01,-2.895637105136720e-01,1.092539951789300e+03,2.664696315577002e+03,1.497788591248910e+03,8.281805166842896e+02,3.730957584440969e+03,-3.238345049513458e+03,-2.152908716411571e+03,-3.776438695702216e+02,1.053626869575107e-01,9.907760964680815e+02,1.516053502176851e+03,1.031086091272475e+03,8.724753421566988e+02,6.743154738144511e-02,5.268546725743833e-01,-3.879263945473536e-01,8.129569388116945e-01,-7.174667870665414e+02,-3.850699560224398e+02,-6.869758587323337e-01,7.675874544845482e+02,2.946639672292857e+03,4.658974979512126e+03,2.456944240181123e+03,4.145252971124526e+03,-4.021596712205447e+03,-3.581531365876628e+03,-1.492438105228367e+02,1.878149384085524e-02,6.416058097362838e+02,5.294574784721987e+02,1.734555939367358e+03,1.282875642338938e+03,-1.127208591630226e-02,-4.748556920618562e+00,-7.824320265394695e+00,-1.282028433301343e+03,-1.112862121582862e+03,-5.335648862628432e+02,-8.412900378011438e-01,2.537707535544051e-01,1.852559924691938e+03,1.098036002692122e+01,1.560427979128333e+03,2.404635019625147e+03,-3.537738326043404e+03,-4.504153162489608e+03,-4.905612542575474e+00,3.514302486743720e+01,1.005551877977838e+02,1.310566491889719e+03,2.727774730981150e+03,2.266498146247112e+03,-1.780519449127089e+01,-6.751280646928921e+00,-1.562550257935091e+01,-2.843533313888883e+03,-1.595780408564093e+03,-9.733759923004159e+02,-6.979960368930854e+01,-3.155194306704646e-01,2.389086799501353e+03,2.454796217460808e+03,1.594955030754494e+03,-9.753798208465769e+02,-2.750781384553248e+03,-2.455032471721950e+03,5.283269976359660e+00,6.556210898794095e+00,1.316192633882212e+00,1.869553082066081e+03,4.028278817467332e+03,3.708521023650634e+03,-8.087690943579307e+00,-5.997878760433508e+00,-1.304356810797420e+03,-1.223770724519836e+03,-8.442572967498705e+01,-8.380158767526511e+02,-2.628423122731805e+02,-3.081214190779139e-01,9.482533293721784e+02,3.935404426825925e+03,4.886402482760926e+03,3.098467075854570e+02,-9.781823956046183e+02,-2.301442696608581e+03,5.904307701445091e+02,3.184008098234214e+02,1.834474027040824e+01,3.502845101642760e+03,4.131821752089640e+03,3.203440842438470e+03,-6.255477151134062e-02,6.560187451725465e-01,-3.183041437181765e+02,-1.043653226438965e+03,-8.335562443939131e+02,-1.219313365309724e+03,-2.141424739944411e-02,-1.642101305753424e+00,-7.716378049490836e+02,1.285587205656038e+03,3.582075480713883e+03,5.336141694868783e+00,-3.957943115491369e+01,3.166033458907712e+01,3.417357628349036e+02,1.165868037363665e+02,2.297775551056892e+01,2.407788148151378e+03,3.122792637817181e+03,-3.280316474820572e-01,-1.908007734470501e+03,4.505633166930685e+01,1.416891846079956e-01,-1.346361494078471e+01,-4.328110041758751e-02,-7.271177827646497e+01,1.390878801112751e-01,-3.867449622276863e-01,-9.436844447299107e+01,-1.048297758319124e+03,-2.287817529733020e+03,5.441550567697099e-02,9.648769404437926e+02,3.576509288981374e+02,-2.432546752418297e+03,-6.009359002799633e+02,-5.243794010595632e+02,-1.564751121511872e+03,-2.625480324220334e+03,1.493940516638225e+00,-2.694843760661040e+03,-1.860600568673741e+03,-6.987434239800417e+02,-1.576824861889535e+03,-8.063833740150696e+02,-1.369957129114799e+03,-2.444916568674953e+02,-7.000083164311542e+02,-5.516895711876926e+00,1.401498378108837e+03,-1.774659942485500e+03,7.465114205690635e-01,-4.501260460628853e+03,1.078962926330996e+02,1.412574472386414e+03,-1.012221702707116e+03,-5.370155079816343e+02,1.977670992272060e+02,-6.027139071483861e+01,1.159082596764079e+02,5.455876092640197e+03,1.924835857863609e+02,1.360365311943234e+03,-5.392237499337639e+00,-1.542318921666384e+03,-2.492838020909780e+02,-1.135363526420346e+00,-3.580926622036997e+02,-3.169210362079829e+03,3.290242607316691e+03,9.584601872059052e-01},{2.920322521342702e-01,2.277809831894047e-01,3.703484773957056e+00,1.606244865259537e+00,-5.942683506009564e+03,-1.305355248728785e+02,4.289817558439720e+03,1.509919806939762e+00,-1.000351303913369e+03,-1.319363717893930e+03,-4.199159824936963e+00,2.284046494892736e+02,2.303294759730389e+03,7.699903711958470e+01,9.608273875108214e-01,4.399867658247774e+01,1.783684900778240e+03,2.460430783107587e+03,-2.279505261383646e+03,5.438425110201909e-01,6.943044904137396e+03,-5.323319244119173e+03,8.779464259036427e-01,4.593142996504956e+02,3.847998499240011e+03,1.161971693182899e+03,1.125588111746429e+01,-5.034452033475433e-01,-5.065486181473125e+01,-7.272805529738243e+01,-6.922649712980309e+02,-1.498271507646058e+02,-2.179217935026922e+03,2.530047317095776e+01,2.857628490194983e+02,-2.142188495081532e+03,-2.383639133185060e+03,4.955147750364834e+02,5.295278303590105e+03,5.489970436804088e+03,-1.851306946694620e+03,4.812348727199016e+03,7.543573257669552e-02,-1.643958449429359e+03,-8.286834771613974e+01,-3.207551348737994e-01,-7.045341914154210e-01,1.703237047691981e+02,-2.426429970960912e+00,3.947178659251315e+02,-4.213895169527496e+00,-1.306537168416169e+03,-1.311261052754263e+03,-5.300098834795363e+02,-9.903485684561047e+02,-1.554499232395104e+03,-4.409260609979863e+02,-2.999400744027864e+03,-5.771575996355241e+01,-3.180128493939352e+03,-6.525696859879823e+03,1.484002986415328e+03,3.349372639815481e+01,-1.342902232363465e+03,-1.733876603784931e+03,1.162452942800403e+01,1.135894516687838e+00,3.310556152133680e+02,1.101522172650516e+03,4.343269043673494e+00,-2.927011190992089e+02,4.617382504325426e-01,1.027620160653946e+00,-1.262762635572794e+03,-8.405189092575483e+01,1.115592242984131e+02,5.022290212663630e+02,-1.192691006528614e+03,-1.954641937657897e+03,-6.245305703512381e+02,-3.214941295111169e+03,4.240651120548457e+01,-1.134373158266264e+03,-1.131632555658901e+03,-1.041762884396212e+03,7.109155734891054e+01,2.350971089879990e+00,1.456744825088034e+03,2.004440791582223e+03,1.669299961990451e+01,-2.587272572978036e+01,7.007281261012761e-01,9.906926777947362e-01,7.798180192685802e-01,1.908621890957449e+00,2.916163115600818e+03,2.630711794202284e+03,-1.791064240422623e+02,-2.856037842625226e+03,1.866125357377229e+03,4.548817103628414e+03,2.344936017447053e+03,-1.284927604794961e+02,8.635205495729620e-01,1.790797189455129e+02,1.010277542693297e+03,2.120015401111221e+03,1.849888168856784e+03,2.941228276759669e+01,7.253199882985157e-01,3.202742968465040e-01,1.276870682246004e+00,1.714121138768302e+03,3.986751776231808e+03,3.686782573156945e+03,3.791761465210428e+03,2.185281592175848e+03,-1.580088818948412e+01,3.881795513224827e+02,1.575132625464748e+03,4.803309824779166e+01,2.858540968021164e+03,4.896648566988611e+03,8.792326773613479e+02,6.424562558568430e+02,1.695819310372890e+03,2.125385221083217e+03,3.103692932841282e+01,7.399786907505121e-01,3.355903608066638e-01,-1.205419448567702e+02,6.212522391010591e-01,5.931311266340601e+03,7.143198552314088e+03,5.436225656548635e+03,3.643023196448416e+03,4.681016644078609e+03,2.348940206300586e+01,-5.932760911256450e+01,1.412953871378704e+03,1.093978892214382e+03,3.916369197033928e+03,5.647442872695558e+03,2.377886104660195e+03,2.841506049422494e+03,1.875412642540568e+03,2.354513548750225e+03,2.070733190756646e+01,6.547292451571016e-01,-9.216293115840790e+00,-5.770833995320736e+01,-8.214452152898222e+00,6.798757193626357e+03,7.781301881618178e+03,5.439773476579150e+03,3.109018287036633e+03,4.479063039582908e+03,1.824786453619565e+03,-3.144403567938169e+00,3.642584417060225e+03,-2.315947216081451e+02,6.444426838145609e+03,1.625476500414991e+03,3.877452473636183e+03,2.026809784803547e+03,2.242124350713659e+03,1.085345746248005e+02,4.320431003759653e+03,4.550975145303358e+03,1.312830756145483e+03,-3.411999778965506e+00,6.566636748317903e+02,6.385182742390714e+03,6.804624062532997e+03,4.416314733199449e+03,2.878781159652557e+03,5.433713402782860e+03,4.578438753212683e+03,-3.633700419099566e+00,3.654280990583233e+03,-5.593622700290201e+01,5.259724774273313e+03,2.644485628910663e+03,2.715104974423891e+03,3.553759403564095e+03,4.633223053744038e+02,1.024542349214467e+00,3.308936120863975e+03,4.462528615736424e+03,2.890338199676588e+03,2.545989974431512e+02,1.632912318610408e+03,3.955211811809470e+03,1.491030347921146e+03,3.574788819839368e+02,3.611475421453886e+03,5.557202504024099e+03,5.046490590160382e+03,-2.279230858837873e+00,4.694846170188418e+03,-2.290825147832536e+03,4.056740677536745e+03,3.933164810301050e+03,3.428087061448638e+03,4.072401148801541e+03,-1.154307912848471e+01,4.326331230296619e+00,5.879433165943975e+01,1.159719334767430e+03,5.843626486178861e+02,-5.200634368407773e+02,2.244819902416018e+03,1.205210415811155e+03,9.675210294423171e-01,2.935031494478738e+00,1.155844551981404e+03,2.895409868233671e+03,2.335499153724837e+03,2.866402599356452e-01,8.045165312296945e+02,-1.715339457962158e+03,1.142594892176388e+03,2.449109457841465e+03,4.244902225703343e+03,4.040826896027389e+03,6.480553838853574e-01,5.359226924523227e-01,4.592210446159473e+00,4.064467630562872e-02,5.376708331150661e-01,4.985899464102642e-01,1.223784319852973e+00,9.220412617497422e-01,5.769991688202933e-01,1.996093673687358e+00,1.225552127277378e+03,3.031100601303668e+03,6.763797019180137e+01,-1.821654766820910e-01,7.501640617813942e+01,-1.029126736703055e+03,1.264011538283688e+03,4.499438314719268e+03,4.611434631372898e+03,3.400432485497351e+03,2.744729776523761e-01,-2.005612895355205e-01,-2.167870353709433e-01,5.264803803208211e-01,3.087573035599556e-01,-3.938369463548246e-03,-1.611014443208652e-01,9.253424294345203e-01,1.223923217426886e+01,1.890633455533292e+03,2.562432764384413e+03,1.523794028656327e+03,3.638631252748068e+00,-2.655409584446033e+00,3.035768899626312e+00,-2.750924359689969e+03,3.033602460245139e+02,6.411498220453367e+03,3.505988667165681e+03,3.350372891928545e+03,8.513997919169945e-02,1.573857239960952e-01,2.992422389311404e+00,1.881384481113290e+03,4.074448284816501e-01,1.570870577467908e-01,8.488527149215699e-01,1.455489884120786e+00,1.658750778248186e+03,2.366431289667765e+03,1.440836430899803e+03,9.421039153919464e+02,3.456330243172405e-02,1.635287141663377e-01,-2.094393169416929e+02,-2.515554020017308e+03,2.297128235659452e+03,5.618542404367817e+03,4.196106440979021e+03,2.141889621075064e+03,5.811300355500471e-01,1.001007759280013e+03,3.824010676999389e+03,5.100847467435384e+03,1.293262726299677e+03,4.439816851190410e-01,3.061116597421137e+00,1.386753636985435e+02,7.365366705804590e+01,5.553581973710148e+01,6.704359936183808e-01,-5.130555287571563e-02,2.687042450263636e-02,-6.671770297941871e+02,-2.356072278148051e+03,-9.248053300037686e+00,2.711880810552201e+02,2.188891558622372e+03,2.911479284313631e+03,2.362711495325102e+03,1.473064384686724e+02,3.702302510151561e+03,5.848315165651999e+03,6.564357860542649e+03,4.391977914861272e+03,1.189383908222526e+02,3.010316287739684e+00,7.199852683185488e+02,3.987983703879103e+02,1.977006807991894e+01,-1.957403269098866e+01,8.439428858582561e-01,-1.859530749727253e+03,-3.673210796348050e+03,-9.558378812950764e+00,3.718575119965768e+00,1.074250552979739e+03,8.061856066505834e+00,-6.476186071630175e+02,1.348912059491469e+03,2.450008107966336e+03,5.927774261447865e+03,6.163274111175642e+03,6.359855632920601e+03,5.420424411511516e+03,4.037955957538911e+03,2.259630079931035e+03,8.924727347118805e+02,8.712225769698973e+01,3.595501938152709e+02,6.399935858746540e+01,-2.861292973827409e+00,-2.236813081318850e+03,-3.359809313053342e+03,-9.237895499282155e+01,5.091282506020107e+01,5.697827355983244e+02,-8.562789970136974e+01,-7.080328033406340e+02,-4.864653017282180e+01,3.377257608546051e+02,3.791397825177293e+03,5.915551559555485e+03,6.787009262059913e+03,4.008797217572925e+03,4.959640591801791e+03,4.520101114540064e+03,3.930512552551537e+03,3.912054792653666e+03,3.218140108636170e+03,2.305358677565279e+02,-2.360252320384267e+01,-1.792235607749179e+03,-3.620328544955348e+02,5.252656914646239e+01,-7.105546559231683e+02,1.793869224570165e+03,-1.258799048888463e+03,-4.863028334978921e+02,-1.550725355235239e+03,-5.482314762499011e+02,-1.124527763226450e+03,-1.531722007010829e+02,-2.547735047563017e+02,-4.338322012785525e+02,1.997387615912698e+01,4.059507526257511e+01,9.156455547047502e+00,1.473092606889872e+02,1.835196053005167e+03,3.213240659615116e+01,2.015192562937700e+00,1.368823370931273e+03,6.312573570909444e+02,3.157466954654971e+02,6.074789409032636e-01,-1.062084783269368e+03,-1.270529270461792e+01,2.542014933428259e+03,1.911045525868404e+03,2.384943012525480e+03,-4.206209400316159e-01,-1.885599254107306e+03,9.613777851354145e+02,-1.253728369187297e+01,-3.108625214151184e+03,-3.874294697262370e+02,3.144866074157711e+02,1.557847360318890e+03,-7.751829383150201e+00,-2.282005283698386e+00,3.426783122195621e+00,1.892655838476585e+03,-2.355486876379746e+03,7.206977717380358e-01},{1.578317764667507e-01,1.003143498606455e-01,4.333130194677950e+02,1.267922846383647e+02,-1.281421566405538e+03,-4.737302145917356e+02,5.122163035917106e+01,1.632498969756716e+00,6.052390175246547e+00,-2.447025280117439e+03,-3.578899206115644e+03,3.835959497023176e+03,7.677707446965260e+02,-3.207792865174689e+03,-2.172787889939210e+01,1.245569349311145e+03,3.099675200771192e+03,1.771762621414027e+03,-2.850100287877653e+03,9.624120007966288e-01,7.052986261610210e+02,-1.421945572247988e+03,-6.056818521539450e+01,2.720685373373655e+03,1.006080361393559e+03,3.974992049755443e+01,-4.120888492355445e+02,4.478734049984382e+02,1.755787040303437e+03,-2.133955629117637e+02,-1.845457255436910e+03,